-0.09293705 0.09838397 0.043984063 0.31770706 0.13057353 0.260144 0.0843084 -0.27466747 0.3420758 0.40516037 -0.13651541 0.21322215 -0.40942967 0.2342461 0.05960619 0.39873484 0.19585727 0.100094646 -0.17665245 -0.42089197 -0.231993 0.09411266 -0.0407968 -0.046187732 -0.34948933 0.058735456 0.3068241 0.18170905 0.0796706 0.0011101402 -0.05231326 0.029926842 0.13613155 -0.24177295 -0.2589116 0.28017622 0.18395534 0.25531986 -0.18499781 0.0600592 0.29117003 0.19381253 0.06273424 -0.25806943 -0.08586118 0.0096689155 -0.065116905 -0.2670255 -0.15111792 0.04343736 0.28129753 -0.0451475 -0.11272014 0.13622849 0.24164718 0.11682523 -0.05404124 0.13174671 -0.021834241 0.012566405 0.22323343 0.07597442 0.2575898 0.36146536 0.06393084 0.25649124 0.12389547 -0.049707845 -0.2704869 -0.23725766 -0.10476751 0.29072458 0.32244518 -0.23576045 -0.027093813 -0.29306737 -0.16884518 -0.09612145 0.33525282 0.15150248 0.2953134 -0.17683794 0.24493602 0.06556528 -0.20883304 -0.124605864 -0.3549807 -0.16160601 -0.0927435 0.19860041 -0.13183291 0.26493648 0.23370364 -0.15815447 -0.32596597 0.28329787 0.022527415 0.21953969 0.25972423 -0.17075379 0.21755958 0.19868666 -0.050179124 -0.22107713 -0.04705715 0.20413004 -0.071636155 -0.26568532 0.1023439 0.27766833 -0.26242968 0.14316182 -0.085229464 -0.0030872812 0.077000186 0.1429896 0.2663373 -0.11139337 0.042822145 -0.3278696 -0.24005651 0.07036333 0.09495827 0.29213262 -0.21345937 0.13640301 -0.0411135 -0.1206024 -0.22565962 0.26894477 -0.28238928 -0.15705647 -0.04118399 0.31223428 0.1430825 -0.27199918 -0.15931383 -0.26315376 0.31156036 -0.14706118 -0.21483709 0.15201847 0.28551933 0.21441393 -0.18221277 -0.14320382 -0.08511417 -0.2709266 0.29939592 0.14304943 -0.306965 0.07636099 -0.15518054 -0.060563046 0.2636213 0.18365058 0.24968477 0.19934699 0.20317265 0.0782259 -0.3192999 0.04625022 -0.0633789 0.18989235 0.30864125 0.0032317012 0.10263867 0.2743101 -0.3042724 -0.2671946 0.017454648 -0.08964584 -0.08563518 0.29497054 0.25260612 0.027049148 -0.015285375 -0.2870781 0.17341049 0.13624822 0.113604225 0.2593158 -0.16472515 0.09561043 0.11763958 -0.0030254466 -0.22095202 -0.0346408 -0.0421816 -0.10077717 -0.15380503 0.13288459 0.11866338 -0.0068384744 0.025693337 -0.11153914 -0.10522336 0.03573253 0.108744964 -0.08506442 -0.22594969 -0.22415757 0.023473602 -0.13580024 0.07050695 -0.08050181 -0.10498138 0.09521943 0.09698894 0.13889226 0.0977409 0.18064596 -0.123562776 0.3237423 -0.21761487 0.25938517 -0.2424671 0.123904124 0.2658578 0.16306637 -0.07368704 0.16795322 -0.19947304 0.08589058 0.022247626 0.27064717 0.055703796 -0.11439412 0.0492363 0.007885241 -0.25823987 -0.17264722 -0.1915695 0.09894679 0.20305951 -0.20864703 0.04258615 0.1058714 0.24752182 -0.19969594 -0.22095557 0.03882276 0.023599174 0.09504709 0.071509875 0.1840549 -0.017086415 0.12000375 0.15042295 0.13275793 -0.15740342 0.165323 0.17477289 -0.1258458 0.13818358 -0.0911792 0.15409885 -0.054983854 0.14428428 0.085691914 0.04697563 -0.15026528 -0.16725078 -0.18596624 -0.10889931 0.17444912 -0.10380433 0.23415132 0.22620134 0.040172234 0.0076099248 0.24105757 0.19111416 0.25100306 0.11293494 -0.07298 0.26055196 0.041745886 0.20695275 -0.24356277 -0.1062306 0.17237474 -0.22288628 0.22180371 0.052408945 -0.24844955 0.2262185 0.107721634 -0.21295507 0.0948473 0.2587556 0.25508562 -0.23282757 -0.18821459 0.016538793 -0.09326702 0.25848025 0.00889176 -0.08366978 -0.07902998 -0.23599061 0.07756833 0.11439307 0.16767648 -0.05446329 0.16344427 -0.17982803 -0.17429104 0.13481715 -0.1546688 0.16168837 0.04536904 0.034814812 -0.031291984 -0.17469835 -0.114180565 -0.11438184 -0.07871431 0.12098039 0.06968558 -0.08341979 -0.18710028 -0.25274366 0.025787495 0.016748048 0.067763776 0.23186116 0.031762812 0.06639223 -0.14087392 -0.12483517 0.22521141 -0.1417476 -0.27118334 -0.20748931 -0.018491268 0.23160893 0.14106444 0.097953156 0.0050430987 -0.21958576 -0.04926164 -0.13187833 0.14952837 0.23569152 -0.22925852 0.09914002 -0.0728232 0.07977318 -0.21547171 -0.058218017 -0.20702203 0.0036263429 0.17069748 -0.0990571 0.20539363 -0.17232183 0.14462946 0.28882375 0.039704416 0.23309328 0.2010112 0.15519316 0.22839051 -0.20723478 0.008259539 -0.14040853 -0.16115126 0.15032856 0.17962399 -0.00088839215 0.20281897 -0.22294527 0.023355115 0.04831596 -0.2548391 0.27836367 -0.2008126 -0.045478377 -0.2501372 -0.20979318 0.05595006 -0.12034293 0.032283023 -0.09636616 -0.1699557 0.19526011 -0.29937634 0.07183929 0.14156984 0.2252926 -0.22234741 0.056016583 0.20294708 0.29146206 0.13600373 0.1574323 -0.016015636 0.15794624 -0.086963624 0.2167189 -0.0646824 0.11318566 0.14847298 0.22601187 0.07657 0.24128112 0.3004655 -0.023477225 -0.11404837 0.067421764 0.14774577 -0.19476971 -0.21093202 -0.15689789 -0.19747019 0.021185944 -0.2180846 0.14029397 0.003157453 -0.16356987 0.044740114 0.30055898 -0.2060718 -0.14277123 0.16418889 0.22832566 0.11601482 -0.21229908 -0.110378176 0.045905862 0.10641262 0.110126086 -0.16621436 0.14951216 -0.2465456 -0.11934425 0.1903751 -0.023207279 0.10735293 0.12995514 -0.10772565 -0.19511512 0.24153253 0.13168733 -0.17837785 0.22190042 -0.031313553 0.22694916 -0.06985078 -0.15242098 0.12117877 0.18061587 -0.11372569 0.1998179 -0.18013333 0.12186774 0.15812728 0.068087064 0.18505606 0.10245269 0.21721002 0.1442511 -0.1935595 0.22404958 -0.020068005 -0.056541108 0.23197947 -0.27646145 0.040147074 0.24495673 -0.21396796 0.06418904 -0.16470961 0.16176915 0.09422753 0.15407106 0.14467898 0.14565012 -0.2095168 0.018946389 0.078331895 -0.047219947 0.0644693 -0.07760171 -0.17098323 0.2942179 -0.098913416 -0.20635878 0.23043579 -0.18785283 0.10993321 0.0745299 -0.20772143 0.16902356 0.18709995 0.03310244 -0.19085518 -0.21302895 0.29651168 0.119117774 -0.108347744 -0.15062034 0.036047753 0.14829133 -0.14309944 0.1955119 0.1470051 -0.13584168 0.2491867 0.12740014 0.030234959 -0.020040696 0.060850225 -0.23165067 -0.081764914 0.09762571 -0.18094306 -0.10155187 -0.17304212 -0.09518529 0.060820475 0.15125069 -0.032936897 0.06206024 0.05447193 -0.10593672 0.15126318 0.6094263 0.07385628 -0.33848152 0.10457895 -0.66507655 -0.3787744 0.5591485 0.22869608 0.5619868 0.38972753 -0.24826802 0.58468866 0.17737383 0.5984255 0.2726591 -0.59502226 0.20595843 0.40348867 -0.29162064 -0.34335092 -0.11768208 0.019131636 0.37495363 -0.47871688 -0.27393067 0.618056 0.6317212 0.55079246 0.28363463 0.40191805 -0.6543525 -0.5586034 -0.09518529 0.060820475 0.15125069 -0.032936897 0.06206024 0.05447193 -0.10593672 0.15126318 -0.14935742 0.10808084 -0.16305937 0.06377328 -0.08648121 0.0431371 0.07768238 -0.14169887 0.19962588 0.20765097 -0.078649946 0.23591736 -0.10800631 -0.1149851 0.11451737 -0.044002034 0.12228898 -0.20314622 -0.0057865 0.17976962 -0.22063036 0.05471979 -0.06173661 0.25374365 -0.17799719 -0.101357445 -0.10964201 -0.023938302 -0.09492603 0.1975137 -0.034285206 -0.14436342 0.053911775 -0.08161738 0.13280706 0.1948177 0.10205179 0.15429384 0.04600761 -0.060554255 0.09108927 -0.027497303 -0.100162715 -0.104810536 0.14820583 -0.1440527 0.12544785 -0.21527036 -0.22618955 -0.062007856 0.14683439 0.1509307 -0.19894831 0.0075066024 0.16879562 0.18828754 0.1389256 0.09843807 0.046395276 0.21653633 0.090529926 -0.12593482 0.12974754 0.07307561 -0.07254686 0.15783276 0.07788796 0.18208565 0.15412042 -0.15189148 -0.14723882 0.090695105 -0.20387119 -0.022903375 0.13651699 -0.18680161 -0.2162091 0.17920025 0.008112885 -0.070491515 -0.03173309 0.19688194 0.08858367 -0.19669105 -0.11392177 -0.16003792 -0.059226494 0.17700374 0.10816772 0.06976245 -0.15683137 -0.20499277 0.085150495 0.0918201 -0.053820115 0.18430921 0.05575978 -0.042294886 0.061933875 0.22936083 0.011395294 0.13095619 -0.054303177 -0.083575025 -0.034248404 -0.14176702 -0.15875214 0.14425279 0.18651514 0.089470975 0.12718713 0.22229531 -0.102599055 0.07462752 -0.12695521 -0.14764066 0.26169136 -0.16010338 0.23284474 0.19232117 -0.17050493 0.05312155 0.08197313 -0.0912921 -0.13469589 -0.13144243 0.14744627 0.116747946 -0.19087093 0.0011209 0.2215188 0.073058926 -0.09920639 0.03099564 0.13168198 -0.0070556775 -0.14684737 -0.029173287 0.11501978 0.13986562 0.21676265 -0.00030750586 -0.09733414 0.14450338 -0.029895317 0.0022257117 0.078008376 -0.1958272 -0.009197921 -0.10451772 0.13000599 -0.06288805 -0.18631753 -0.08637434 0.0478598 -0.1871543 -0.15298484 0.03730398 0.029323258 0.17759074 -0.15361392 -0.15277012 -0.17003676 -0.02577075 0.07594323 0.073624924 0.069878854 0.11979167 -0.21643741 0.089732066 0.0056934776 0.21479215 0.21457617 -0.16259332 0.15201254 0.03817357 -0.026741533 0.22281502 0.00910537 -0.12879635 0.03076846 0.16317959 -0.19139592 -0.1305841 0.12613153 0.027231976 -0.047878273 -0.06773279 -0.16470169 -0.09787607 0.013880566 -0.16612776 0.20076813 -0.11672517 0.13064279 0.011720235 0.08166588 0.19323853 -0.14085716 -0.09979718 0.09068446 0.058577195 -0.21379946 -0.11969118 -0.115372755 0.033983134 -0.17588553 0.1540267 -0.058536448 0.07238179 0.000842328 0.023822775 0.068342105 0.14081067 0.010548636 -0.16627297 -0.07831269 -0.070346095 -0.17246015 0.111268476 -0.13212061 0.070918344 0.22628048 0.08459308 -0.12422122 -0.03965732 0.1442809 0.24263863 -0.096597925 0.03504202 0.17655785 0.028818576 -0.07295229 -0.09584248 -0.18403466 0.072064534 0.058115337 0.092417695 -0.09866891 -0.01978357 0.08282076 0.11930739 -0.10477796 -0.11386133 0.10774728 0.1989329 -0.12489104 0.12694463 -0.105824426 -0.03161754 0.030646808 0.19249402 -0.05106163 0.21875054 -0.089350566 -0.17106253 -0.1714412 -0.18464607 -0.16345054 0.16852461 -0.15457146 0.07872619 -0.1867967 -0.0038616173 0.1432813 -0.08145385 -0.084264085 -0.13489375 -0.010664016 0.10558344 0.20410676 0.070981175 -0.04606644 -0.0039939974 0.110998094 0.037423197 0.13779849 -0.1458355 0.13480285 0.13330449 0.2550776 -0.03865073 0.10796976 0.12593882 0.24785818 -0.1241167 -0.073400825 -0.17533755 -0.11312989 0.14969142 -0.0687209 -0.020711506 0.12326172 -0.059523698 -0.01259089 0.07329828 -0.07649128 -0.021309488 0.16747819 0.16726014 0.029768385 0.23724955 0.043051783 -0.12576805 0.17392607 -0.034486108 -0.08312052 -0.20390545 0.014552686 0.057964265 0.088782966 -0.09448668 -0.118607156 0.23158313 0.030345447 0.12925728 0.1369006 0.047551207 -0.14124042 0.0751488 0.0069349403 0.12761194 -0.027630536 0.08548537 -0.107919075 0.123644546 0.15957597 -0.16246086 0.07755262 0.014540942 0.19374087 0.14071082 -0.12830389 -0.1712741 0.0987583 -0.16466002 -0.18446246 0.1343231 0.03562893 0.006339306 0.17946434 -0.18343009 -0.065355204 -0.0018901182 -0.04271722 0.11529854 0.22270852 0.18598397 0.085450806 0.20827588 -0.057575535 -0.054801736 0.018015025 -0.17925072 0.03507968 0.01774608 -0.16855516 0.004685763 -0.034123324 0.05577189 -0.15667091 0.0035085508 -0.15872858 -0.15015507 0.07708027 0.10131618 -0.13484816 -0.07983179 0.050212555 -0.092954464 -0.1497622 0.08538827 0.12994158 -0.006052857 -0.08302957 -0.054812454 -0.032376498 0.124098115 0.050526343 0.057498965 -0.13719507 0.097970605 0.26311323 0.014130451 0.007946898 0.03738926 0.13227005 -0.15174349 0.08465043 -0.118840784 0.05653168 -0.14849494 -0.24609289 -0.10430824 -0.122068584 0.1268785 0.011117475 0.16443509 0.2777452 -0.029701782 0.040297624 0.012122967 -0.081876695 0.084765606 -0.16539523 -0.041897226 0.21809693 -0.19579433 -0.10236755 -0.1751247 0.076329865 0.13956101 0.23802523 0.15136829 -0.07080872 0.24238384 0.019811803 0.10863646 -0.19029677 0.13890915 0.096408695 0.21170424 -0.04370935 0.20933121 0.109901026 0.19109732 0.04460608 -0.06515358 -0.15946376 0.16427442 0.12739372 0.13870515 -0.17969562 -0.015362636 -0.045642212 0.04226057 0.21351822 0.06653717 -0.033237137 0.22115839 0.13587672 -0.011579211 -0.037420608 -0.010291563 -0.07841194 0.03375616 0.17640887 0.18460311 0.2044005 -0.037764076 -0.07379482 0.2202427 0.17052698 -0.028393302 0.14608616 -0.024348347 -0.012382036 -0.07941297 -0.1714626 -0.10016936 0.11799224 -0.05586734 -0.12473202 -0.04720941 0.24291748 0.06451592 -0.09390159 0.06075279 -0.14995213 0.1537786 -0.09855541 -0.16827762 -0.096763745 -0.18151443 -0.09940872 0.07478759 -0.057825536 0.16800317 0.007919618 0.07323419 0.22512527 0.1673229 0.10794592 0.18842575 0.18066637 0.030371068 -0.08911925 0.14735138 -0.11805062 -0.13483733 0.05214046 -0.1129142 -0.11668056 -0.071659215 -0.10147883 0.052414834 0.17340691 -0.1802158 0.1138925 0.032416787 0.017847674 -0.024917189 -0.14503507 0.0138510605 0.12462191 -0.17495784 -0.05358758 -0.18346395 -0.08726964 0.16863313 -0.10217205 0.22264488 0.20826982 0.14087151 -0.047481652 0.083891824 0.023987984 0.00792626 -0.1364471 0.17702696 -0.008362828 -0.025102137 0.12048329 -0.20135348 0.01249852 -0.18278328 -0.19857368 -0.037096538 -0.21670896 -0.18699422 -0.16849461 0.1754068 0.08744675 -0.009724272 0.15455559 -0.21121477 -0.012693713 0.13143697 0.19232155 0.09078894 0.09058429 0.06097857 0.045584068 0.07976064 -0.17654492 0.03182805 0.15620275 -0.19767421 0.11459024 -0.069168314 0.057603315 -0.00781913 -0.08033683 0.05745486 0.16755104 -0.14945015 0.10020562 -0.14480267 0.060498998 0.08507859 -0.21403174 -0.10543095 -0.06796239 0.03793751 0.13692875 -0.16157436 -0.1347609 0.008129176 0.022199301 -0.1612055 0.1634223 -0.22176856 0.05728061 0.059634417 0.070002936 0.0880499 -0.04823902 -0.0775844 0.05453708 0.009904251 0.03871179 0.15615392 0.19822852 0.21501656 -0.015149717 -0.0664158 -0.18089955 -0.17910875 0.023054352 0.17322564 0.19825771 0.084802486 -0.0025871538 -0.073535435 0.21029726 -0.14218912 0.11793568 -0.13366514 -0.013775443 -0.21428137 -0.12041311 0.037165962 0.20594475 -0.10528751 0.11608033 -0.054071933 0.041041464 -0.15022708 0.042100254 0.115917176 0.076394245 0.00858543 0.024370745 0.076294735 -0.05443642 -0.04799153 -0.08274622 0.116438255 -0.036718834 0.09956942 -0.07368746 -0.084356755 -0.19752894 0.13322467 -0.1605186 0.1321084 -0.1706588 -0.020278597 0.031471387 0.13520876 -0.08754925 -0.041269965 -0.055013105 -0.089894965 0.18760058 -0.15555355 0.17053667 0.22944021 -0.16101088 -0.021418435 0.06590754 0.10140984 -0.05741901 0.11927705 -0.002506359 0.10349145 0.107764155 0.052052442 0.0051929858 0.111733355 0.112083524 0.12800014 -0.11203252 0.055022467 -0.085254885 -0.0861915 -0.15719347 -0.013241379 0.07792389 0.056732234 -0.007920131 0.15327801 -0.14146051 0.07962356 0.10571917 -0.16026674 -0.12176152 -0.10339906 0.16949631 -0.018345611 -0.08620675 0.18314953 -0.09183919 0.13575697 -0.12146507 -0.117131785 -0.12431873 -0.10234667 0.1303507 -0.069368795 -0.06684338 0.026341673 0.27259445 -0.1137502 0.1428966 -0.11640249 -0.13407147 0.18131474 0.032209463 0.09144928 -0.1775214 0.066363096 -0.028518397 -0.03515649 -0.12728575 -0.06351532 0.14075264 -0.07856835 -0.1789604 0.068851545 -0.046600062 -0.048756003 0.017692812 0.24295534 0.24955751 0.1295868 0.18703625 -0.011024598 0.011246122 0.1283192 -0.090784915 0.19873595 0.23614296 0.069076285 -0.15867093 -0.0200633 0.08987107 0.08695628 -0.010571535 0.026642568 -0.19039138 0.0017545806 0.21419851 -0.117310345 0.17365769 -0.11860542 -0.11620819 0.10155239 0.09617081 -0.14906344 -0.06379584 -0.009719522 0.15290877 0.1295954 -0.020241288 -0.023980254 0.01711475 0.11342763 0.0045482335 -0.09972695 -0.20074067 0.014563311 -0.083719544 -0.08905712 -0.18323916 0.10564491 0.17219035 0.06065474 -0.01672359 0.16809034 -0.06758035 -0.07851839 -0.032081466 -0.04990444 -0.040702615 0.0011406218 0.09385062 -0.11826993 0.02152286 -0.036465842 -0.014938543 0.20386514 0.15395191 -0.107185446 0.16812816 0.009122016 0.073538594 -0.0668006 0.049664985 0.17577101 0.08642226 0.029567063 -0.16835628 0.16023628 -0.033680383 -0.13362013 -0.16331278 -0.017742857 0.13019173 0.0070875934 -0.026813976 -0.12770718 -0.06442528 -0.15157531 0.094895475 0.25301835 0.07613836 0.16481578 -0.037515562 0.084635295 0.08207453 0.12201084 0.08072818 -0.008576143 -0.035027597 -0.068170816 -0.10501616 0.010498704 -0.011533237 -0.032951046 -0.1488607 -0.084757 0.11146553 -0.06352915 -0.04493414 0.10786078 0.008846901 0.0480906 0.07160315 0.05473035 0.17175674 0.08330555 0.1667008 0.09771118 0.057878565 -0.20042409 0.13136935 0.046795312 -0.1922537 0.16713856 0.15996845 0.10672213 -0.062690064 -0.07168926 -0.13358079 0.06912595 0.1135671 0.052198883 0.11637176 0.079298384 0.05355462 -0.10493292 0.15708798 -0.08691702 0.12256919 -0.005710527 -0.058002133 -0.03961724 -0.056286562 -0.118362114 0.014548956 0.13437685 0.056387343 0.12311953 0.091025114 0.17104876 -0.058794625 -0.15627325 -0.09610211 0.028975409 0.16564101 -0.1278332 0.101828925 0.12284603 -0.07724147 0.008690759 0.015844688 -0.063776925 0.06494289 -0.009248967 0.052103736 0.1256874 0.113053605 0.17718822 0.101064086 0.20595172 0.11975261 -0.112633094 0.107864246 -0.18457417 -0.070943825 -0.13162647 0.026356515 0.11909918 -0.13719815 -0.09534663 0.12928432 0.17148058 0.052176245 -0.15502986 0.16241811 0.19127862 0.0744795 -0.12545426 0.1189957 0.018215183 0.094791315 -0.02293506 -0.15909024 0.057342622 0.11386392 -0.16542915 0.0453902 -0.088300265 0.027015554 -0.0018137222 0.0769482 0.060791917 0.031173695 -0.16248581 0.13300638 0.089419745 -0.13384995 -0.039048877 -0.16241015 0.025355559 -0.14331971 -0.21150252 -0.1601175 -0.08600774 0.11937635 0.20246711 -0.11714072 -0.043648645 0.1996551 0.045381382 -0.010509179 -0.18016191 0.1438148 -0.18253568 0.15841544 0.08120027 0.011474482 0.20367849 0.18322822 0.21477288 0.09179958 0.13812257 0.15888017 0.1272291 -0.17409045 0.044955622 0.20144717 0.19877028 0.13495472 -0.17273274 -0.14124459 -0.03450512 0.04453874 -0.14616217 0.077339195 -0.07025012 0.037172932 0.0666945 0.19558667 0.03441016 -0.035051886 0.1591005 -0.052641165 0.08404358 -0.09688483 0.029999977 -0.009974184 0.14568095 -0.013732521 -0.057971798 -0.083844505 0.023553004 0.008056132 -0.032016568 -0.10584445 0.038942013 -0.090459555 -0.15026802 -0.07822229 0.045927607 0.18692209 0.0496449 0.15929852 -0.04615749 0.093594015 -0.009100526 -0.09419628 -0.007911794 -0.14119011 0.061829746 0.020085968 0.051558763 -0.13626342 -0.17769572 0.19628102 0.20767711 0.033062935 0.1649334 0.06058088 -0.13967225 0.051094055 0.01418818 0.009102437 -0.14281458 0.087455936 0.15393487 0.099812925 0.10604537 0.03806895 -0.09960466 -0.0671203 0.14955708 0.07468211 0.06602256 -0.11036786 0.08893527 -0.21576318 -0.18923277 0.14312103 -0.01735786 -0.01976827 -0.12653767 0.12097725 0.031891167 -0.068101615 0.072958976 -0.14971933 -0.09955838 -0.100062415 0.011835028 -0.09914834 0.017260835 0.0599969 0.120362364 0.16645436 -0.031244423 0.05083044 0.09093733 -0.101023115 0.19696683 0.11784535 -0.16418622 0.111852646 -0.003829042 -0.0628191 0.112694666 -0.082356706 0.21935792 0.17631093 0.20364407 -0.12483212 0.056941736 -0.18239701 0.08340383 -0.043187737 -0.014172645 -0.068716004 0.019173248 0.084935956 0.15235293 -0.09160735 -0.0028183747 0.110889524 0.09647128 -0.04392451 -0.023568232 0.11568222 -0.030731048 -0.04325138 -0.068487495 -0.015678357 -0.0008681517 0.11014074 0.22936924 0.045020755 -0.17086683 -0.14912532 0.025072604 0.0868088 -0.19934092 0.05036393 0.1222871 -0.19805223 0.13335913 0.14847563 -0.060653992 -0.00044269665 -0.13251075 -0.19614336 0.09415348 -0.10490992 0.05878344 0.11024955 0.15160796 0.032557145 0.029413909 -0.06172793 -0.023269106 -0.14936663 -0.048479144 0.15060937 0.0037561439 -0.17952497 0.18009982 0.050496824 -0.017630748 0.016983502 -0.14865567 0.13583833 0.02726837 0.12886044 0.06739836 0.18314022 -0.06264904 0.0062232185 0.16631015 0.19373961 -0.012615616 -0.108563036 -0.105780065 0.080313824 0.0005541426 0.05957519 0.03730032 -0.13959637 -0.14516851 0.10987831 0.22704796 -0.17806935 0.14763482 -0.01653819 -0.15189679 -0.083401546 -0.09138022 -0.17874733 0.09756963 0.1694694 -0.16238521 0.13568963 -0.23363529 0.068507195 0.12463298 0.19292392 0.16796336 0.057368092 -0.17684127 0.0004624519 -0.077694565 0.23698375 0.009408832 -0.20717071 -0.1510916 -0.10597984 -0.05273746 -0.09339987 0.017924134 0.103588894 0.064310625 0.07597008 0.17601143 0.052421406 0.028114513 0.14121413 -0.035388626 -0.068733275 -0.052483376 0.17273454 0.07288887 -0.16616963 0.14065804 0.14052038 0.02708302 -0.17544883 -0.028698059 -0.013484646 0.16417041 0.1017732 0.18588215 -0.07988927 -0.12265984 0.05446289 -0.05675316 0.077359825 0.004669744 -0.026850456 0.048992515 -0.03137586 0.18938704 -0.08501769 -0.17310238 0.16865948 -0.0153438 -0.15514775 -0.021372737 0.119564734 -0.029800333 0.2466261 0.15925758 -0.004959056 -0.06400153 0.17038068 -0.06688382 0.13618872 -0.07484864 -0.17422558 0.118294895 0.1655643 0.13107659 -0.0873747 0.22208802 -0.025529979 -0.089641735 0.029804703 -0.18309914 -0.084839165 0.15073068 0.20706567 0.008467259 0.17307311 0.14097704 -0.038977884 -0.11229552 -0.12583628 -0.17325704 0.10843243 0.13250065 -0.021004627 0.09654202 -0.009428335 -0.010244203 0.16346024 0.03892489 -0.08560025 0.033922687 0.09766001 -0.10900731 0.05236569 -0.01878168 0.04967604 0.17820947 0.03423692 0.13377509 0.13110127 -0.17009206 -0.031146264 -0.1599972 0.007873128 -0.021249222 -0.15538716 0.0588999 -0.020023294 0.013671268 -0.045824293 0.044207323 0.16085151 0.03108491 -0.03924535 -0.056457818 -0.03514991 -0.088066034 -0.039228357 -0.05858243 -0.1446113 0.08152848 0.13196006 0.097678274 -0.08013325 -0.060282018 -0.029822875 0.18722232 -0.051512264 -0.019518381 -0.09385561 0.18991056 -0.021411404 -0.29837874 0.04925529 -0.15076251 -0.12563208 -0.11848715 0.01401005 0.020209165 0.12174766 0.14001125 0.12516645 -0.04426245 0.0049474156 0.1713368 0.055165663 -0.1353642 -0.15549473 0.12019493 0.09526078 -0.15968482 0.10541367 0.075054914 0.10167714 -0.15120164 -0.11903234 -0.12548122 -0.15955363 -0.17334524 0.027589446 -0.14419886 -0.0112726595 0.06711575 0.14950366 0.0049727615 0.12549967 -0.12751505 0.0448674 0.057048615 0.048159435 -0.19453037 -0.08914753 0.012785401 -0.12106464 -0.10353288 0.17542157 0.074881576 -0.05418763 0.18545708 -0.10980143 0.11353724 -0.14198372 0.057188638 0.1469697 0.14723274 -0.08753176 0.18237367 0.07262084 -0.027586933 0.04384383 -0.06569657 0.06857627 -0.10536511 -0.17576514 0.014684513 0.15314184 -0.003500168 -0.09460661 0.026514791 -0.03833848 0.1786157 0.17522107 0.1488334 0.12806045 0.16562518 -0.1317814 0.1104104 0.08949077 0.17846239 -0.045075428 0.098790616 0.15473989 -0.03757769 -0.08795705 0.02118105 -0.20860198 0.19866656 -0.041498326 0.11374693 0.03447073 -0.1886584 -0.034300234 -0.05640124 -0.13055722 0.15047655 0.17080072 0.101565585 0.15474619 -0.0074869925 0.11733099 -0.12533164 -0.13675293 -0.18182617 0.1882396 -0.04000026 0.13513996 0.113359116 -0.16455522 -0.039797086 -0.110497385 -0.17634788 0.17686689 -0.1841421 0.121177085 0.09511588 0.03324304 0.042773668 0.01825525 0.1740829 -0.080326356 -0.10715465 -0.08499261 -0.0972614 0.08173308 -0.057423215 0.16882832 -0.12576763 0.11427243 0.15006278 -0.14862674 0.19274133 0.20450446 -0.031720392 0.12170175 -0.004304625 -0.11812082 0.07464692 -0.19379908 0.10950162 -0.15404609 0.011766551 0.07389558 0.032703962 0.04961219 -0.13824587 0.14971541 -0.12886134 0.021053882 -0.058983028 0.13120629 -0.070952 -0.02084918 0.17810228 -0.13284661 -0.15606812 0.046504296 0.00018375186 0.022571297 -0.02176543 0.100761704 0.1538827 0.059562135 -0.060512416 -0.022702048 0.1719957 0.08145907 -0.06026918 -0.14824514 -0.045955088 -0.03452024 0.12921534 -0.061613508 -0.261406 -0.005947644 0.01816373 0.073057145 -0.19277227 0.15890981 0.10389096 -0.13095929 0.13000485 -0.05946086 -0.05240573 0.10218112 -0.1045632 -0.084524624 0.13525753 0.05762318 0.05449464 0.07074412 -0.13371244 -0.011314103 -0.008997485 0.16288829 0.05596739 0.054071926 0.028261568 0.08951851 -0.023916358 0.09913909 -0.1677592 -0.118171826 0.13410372 -0.031396862 0.13496436 -0.08963649 0.21569079 0.12878756 -0.09162931 -0.03796237 0.16407463 -0.116335414 0.15163638 -0.15959892 -0.102056496 0.18997972 0.04291095 0.14304766 -0.12502457 -0.1195892 0.19330741 -0.097123876 -0.047781434 -0.011668523 0.11299418 -0.13402039 0.10651486 -0.12008062 0.131486 -0.14773576 -0.047884785 -0.07319999 -0.012688788 0.18289118 0.06205524 -0.049050674 0.2030251 -0.16809615 0.15478106 0.0003209051 0.007893073 -0.09375006 -0.15459798 -0.1903241 -0.14100544 -0.18333189 0.059297882 0.116935596 -0.071311764 0.050568555 0.053713243 0.20131221 0.009777366 0.003331478 0.05269279 -0.054109354 0.014232939 -0.10284147 0.07075739 -0.118540324 0.07012388 -0.037523042 0.19082443 0.18722661 -0.16810997 0.040929776 -0.114755146 0.02735118 -0.06290257 0.059114046 -0.044564314 -0.0017723296 -0.043053534 -0.12543245 -0.11997743 -0.1708236 0.11380881 0.12967236 0.026319107 -0.10930143 0.16206227 0.112900496 -0.1362412 -0.044613518 0.16106413 0.15785585 -0.119839884 -0.056076117 -0.16670133 -0.12507343 0.06444055 -0.04481513 -0.093463816 -0.13152544 0.16255012 0.07779666 0.055351075 -0.100019105 0.027173143 -0.13909215 -0.08619004 0.1096689 0.22659545 -0.0763757 0.07520975 -0.051092267 0.054287214 0.09873613 0.045420215 0.012200668 -0.09392803 -0.072893076 0.099306345 -0.052407343 0.1277709 0.07196976 0.14374438 0.08115981 -0.20189267 -0.10804733 -0.15673316 0.16484408 0.18050252 -0.050331123 -0.023390124 0.21646531 0.19152024 -0.021021852 0.05984569 -0.104801685 -0.097634114 -0.020647008 -0.22718443 -0.027388688 0.13409528 0.16510391 -0.010057197 0.13187468 0.13935655 -0.08355967 -0.12608567 -0.105244316 0.019493192 0.08997605 -0.051074844 -0.03651059 -0.06793819 -0.065865226 0.084490314 0.2037943 -0.14643197 0.20194079 0.09785687 0.16858357 -0.017051294 0.09730957 -0.039505377 0.024007324 -0.078650914 0.20743094 -0.077896416 0.025107324 -0.055956095 -0.18187174 0.16427109 0.13708903 -0.11088423 -0.018747576 -0.14807983 -0.1457319 0.053057797 -0.12373116 -0.097304344 0.094141684 -0.052615527 -0.05009231 -0.13898903 -0.067068845 -0.03284183 0.108605035 -0.10196791 -0.13296255 0.05317442 0.12642956 0.083831474 0.061438203 -0.09464519 -0.071421556 -0.03219491 -0.04484457 -0.13155228 -0.21931635 0.18668409 0.13326357 0.1996226 -0.041383322 0.123054795 -0.1498417 -0.11459625 0.031271342 0.23209395 0.15269709 -0.15741208 0.15992251 -0.12031775 0.1578054 -0.02021749 0.19649954 0.119266495 -0.11066606 0.027704919 -0.029948238 -0.13752638 0.044643894 -0.021199265 0.06210403 0.079574056 0.017816242 0.17272246 -0.0872885 0.13721438 -0.109640986 0.068023086 -0.16684708 -0.14479819 -0.09157548 -0.017803168 -0.074987896 0.16027163 -0.15626246 0.09321215 -0.11015609 0.20062327 0.17142652 -0.14136398 0.14322707 0.23840012 0.06331654 -0.00071336626 0.10358686 -0.15601127 0.034851823 0.036866713 -0.072077125 0.06497002 0.002566674 0.114526995 0.20765373 0.06386037 -0.13754538 0.18795867 0.041818716 -0.055122692 -0.032479037 -0.06300717 0.1315092 0.03907969 0.16385992 0.17517307 0.08765639 -0.032373294 0.19041003 -0.010948401 -0.02193144 -0.085233726 -0.17607385 -0.093083955 -0.024705825 0.03300769 0.032039426 -0.089363016 0.14115617 -0.05204643 0.0014176182 0.14584896 -0.11030782 0.20796987 0.14596233 0.06864087 0.189999 -0.077413544 0.20336667 -0.22972824 -0.16933173 -0.0968226 -0.1106129 0.0026904617 0.024450248 -0.010915996 -0.03537091 -0.029699579 0.22400978 0.15767586 -0.051266983 0.14846241 0.14893007 0.014158192 -0.091720164 0.09619594 0.023855424 -0.0033255739 0.095901616 -0.06712913 0.08873001 0.047616433 -0.044976607 0.010432172 -0.115724325 0.15316103 -0.072087154 0.17341158 -0.16164047 -0.19888102 -0.00034558692 0.16073656 -0.12345109 0.112034164 0.09666322 0.12768266 -0.046732634 0.10416546 0.029979393 0.031907022 0.006039675 0.031673126 -0.022713069 -0.1357773 -0.046940237 0.13527612 -0.21344726 0.030773606 -0.058274608 -0.123571 0.14203206 0.15808854 0.035997905 0.22838737 -0.043623086 -0.16755353 -0.028490074 0.03586316 -0.06679164 0.24669233 -0.12873663 -0.16585943 0.10757845 0.12129318 0.07594143 0.17678006 0.18283464 0.103502154 -0.17152329 0.03674958 0.04414795 -0.08372879 0.18394624 0.1564261 -0.022432728 0.18342158 0.022458805 0.00026313378 0.16738878 0.16750215 0.0040125526 -0.008321364 0.14850432 0.23463278 -0.07724728 -0.069319144 0.07087182 -0.039473485 0.009565224 0.17698452 0.026994944 -0.026687596 0.23314258 0.057893477 -0.052963488 -0.107269675 0.14505798 -0.09601266 0.15753946 0.11916683 -0.020122206 0.07459131 -0.1394374 -0.06083376 -0.12821358 -0.1698963 0.13976967 -0.073184684 0.15897602 -0.028928697 -0.02717497 -0.12933402 0.086262494 0.052077826 -0.1491977 -0.13758205 -0.14477964 0.013339762 0.044003673 -0.0028382123 -0.016907742 -0.05643092 -0.11631661 -0.09992908 -0.072759464 -0.06534148 -0.0338362 -0.116084814 0.18602464 -0.15118186 -0.14590752 -0.15029523 0.14884521 0.17870773 -0.077860415 -0.0068531316 0.018089725 -0.16403562 -0.07666964 0.13402699 0.22181486 -0.10603712 -0.13951628 0.002898187 -0.035973582 0.009733568 -0.08433265 -0.12656373 0.045389634 -0.020975277 0.12518679 0.18361455 0.01788788 0.066992275 0.09571182 0.17616068 -0.078136444 0.10623949 0.023315152 0.1253702 -0.022111269 0.19215824 0.05062778 -0.028629072 0.16107048 -0.101022 -0.08086468 -0.08079459 -0.11207823 -0.18680988 0.20364128 0.03389273 0.024585376 -0.102887325 0.045541935 -0.035335515 0.20671892 0.16576199 0.1660543 -0.16378994 0.08225076 -0.062783055 -0.0065427744 0.18290591 -0.14744678 0.10067096 -0.08650438 0.12869151 0.17045373 -0.13838689 0.15827356 0.20989342 -0.009994483 0.12292409 -0.03217937 -0.052995272 0.047149036 0.05162127 0.124933936 0.004953333 0.08409554 -0.031653095 0.09553406 -0.123882346 0.13151687 -0.07816138 -0.08170769 0.10223404 0.0734574 -0.036211688 -0.1664781 -0.20375665 0.0002846545 -0.06368057 -0.07854569 -0.11390098 -0.11776603 -0.13093434 0.078106746 -0.21327132 0.16839655 -0.16179061 -0.14664981 -0.108780116 -0.09684048 -0.1599123 -0.19852619 -0.17675187 -0.07766579 0.00897173 0.10944903 0.20988932 0.052397802 -0.03767303 0.18442138 0.013958353 0.058655925 -0.08070515 0.1743606 -0.14902328 0.08551818 0.16600136 -0.11557619 0.012604236 -0.11978253 -0.07915871 0.20732771 -0.17954588 0.13996439 0.08383072 0.17902534 0.07220553 -0.12399923 -0.020686092 0.056713447 -0.053089105 -0.110101976 0.1136761 -0.14153242 -0.02017675 0.018535275 -0.18001595 0.16495012 -0.0077229035 -0.036746256 -0.2468855 0.029680353 -0.17697547 -0.06860824 -0.101656795 0.076223955 -0.16525607 0.08392825 -0.072961606 -0.13271812 0.10280284 0.1624042 0.16242805 0.18873012 0.10468007 0.018208874 0.07901237 -0.05916722 -0.140248 -0.11988071 0.09796724 -0.16524684 -0.14581989 -0.08430892 -0.16821969 0.05133255 0.15257518 0.052561097 -0.032301266 0.2165697 0.17662637 -0.08570694 0.1956204 0.034218125 -0.058422737 0.027098596 -0.114631124 -0.03231885 0.07402889 0.11001172 0.21334103 0.004385485 0.21268064 -0.06431431 0.17212075 0.061428424 0.17081653 0.00040368468 -0.021040179 0.10079193 -0.17236745 -0.089858115 0.030003296 0.16487163 -0.11715112 0.042640578 -0.04103907 -0.047106802 0.19755997 0.06997798 -0.03178487 -0.1796368 -0.14395484 -0.033393443 -0.13987735 -0.052362688 -0.10516003 0.081035934 0.124091014 -0.002721907 -0.18497503 -0.06991357 -0.08361233 0.085661314 0.06432617 -0.029582223 0.19895777 0.012569663 0.024904398 -0.04898099 0.15761036 0.17432523 -0.07349733 -0.073738225 0.16379476 -0.13800715 0.08591852 0.05645892 0.13584255 0.15505306 -0.1453783 -0.17156444 0.15490948 -0.05761732 0.10880839 0.07648849 -0.16901353 0.09343092 0.09871305 -0.10560737 0.06485048 -0.018560274 0.0010602775 -0.08831775 -0.06089396 -0.0031074758 -0.00205166 0.048309445 0.12370441 0.13844852 0.02886904 -0.14977981 0.070705324 -0.00087992667 -0.09004424 -0.13435023 0.027681956 -0.045372427 -0.01966163 -0.14258568 -0.027417412 0.08878194 -0.058907963 -0.056092486 0.17479354 0.18613183 -0.13185216 -0.20313774 -0.13813996 0.10990524 -0.1487379 0.15045033 0.19567844 0.11617335 0.1766129 -0.023354884 0.14760473 -0.15512435 0.012747903 0.017825719 0.005365958 0.21565123 -0.15474957 0.15533032 0.16480471 0.07969576 -0.18508245 -0.049769014 -0.17071407 -0.18985774 0.18675147 -0.0649648 -0.19289918 0.14338732 -0.06110449 0.011451022 -0.09560237 -0.118161745 0.15276971 -0.0054768887 -0.06955171 0.09241774 -0.03196514 0.0469923 0.20628609 0.19867899 -0.035832517 -0.10323566 0.08523432 -0.021245277 -0.062056836 -0.017875878 -0.006251235 0.094428055 -0.07253301 0.060720645 -0.073067516 -0.01173772 0.063238926 -0.13010542 0.12201685 0.06617721 0.16234216 0.1459584 0.021620605 0.12407385 -0.13123488 0.08870846 -0.20393965 -0.170935 0.13072474 -0.1146865 0.09680282 -0.15608901 -0.004011671 -0.033408985 0.07234531 0.008017024 0.10216119 -0.15633805 -0.08926253 -0.16126175 -0.18569465 -0.2057321 -0.11625712 0.051733047 0.14789587 0.020461768 0.06824935 0.093222156 -0.06565772 0.18939051 0.07873051 0.016188642 0.11216708 0.13005643 -0.047557827 0.07256075 -0.21442476 0.1580116 0.16808224 -0.09896143 -0.1433721 -0.06645453 0.17787154 -0.07249933 -0.082082555 0.1077199 -0.0030453012 0.17137328 0.06342253 0.028944371 0.102480836 -0.13900666 0.07349328 -0.07987898 -0.04891528 0.13131084 0.1965268 0.019808099 -0.008160812 -0.08747228 -0.09542369 0.03191606 -0.07081921 -0.093621895 -0.11195298 0.12900007 -0.19025466 -0.21424364 -0.10877866 -0.047513925 0.13231887 0.010070449 0.107700914 0.15909962 0.14557381 0.11512514 -0.02220727 -0.13519092 -0.20034763 -0.13988425 -0.17562671 0.13754557 -0.084597796 0.0859658 -0.003044692 0.16784842 -0.013942194 -0.051454347 0.054916818 -0.034862597 -0.08677276 -0.062500514 0.0198765 -1.4190301e-05 0.074635215 -0.15916458 -0.092509694 -0.121085614 0.02396062 0.010863313 0.081207745 0.15875189 0.05571029 -0.16105478 0.03548566 0.13085836 0.06382156 -0.2346935 0.184267 -0.13261557 -0.102750935 -0.09866014 0.09678052 -0.1528827 -0.040148344 -0.1975721 -0.016117312 -0.19755358 -0.13594961 -0.14012013 -0.09097007 0.02557874 0.0813022 -0.19219328 -0.16877142 -0.037138645 -0.17025346 -0.14818905 -0.06740937 -0.012973888 0.04705583 -0.012981527 0.15327655 -0.09080256 -0.108246796 -0.057505023 0.11256187 -0.035692353 0.19207886 -0.08999673 0.0653695 0.13027553 0.19876644 0.11940774 -0.1390919 -0.16070323 -0.13658798 0.10164203 0.12946731 -0.027718183 0.017848281 0.15935141 0.056610063 0.052507486 0.19016568 -0.011527038 -0.07262808 -0.08107178 0.06304205 0.101124145 0.06540251 -0.04798193 0.16425447 0.1471632 -0.2196558 -0.12377603 -0.06732722 -0.25950944 -0.13125087 -0.20447461 -0.04655083 0.070116155 -0.01588634 0.060690377 0.12677613 -0.13251376 0.045038074 0.09406852 0.14748713 -0.18357763 0.13466546 0.121350445 0.0059388992 0.08417076 -0.014478466 -0.14259255 0.034729667 0.03891459 0.09590892 0.20271285 0.09240233 -0.09880528 5.086411e-05 -0.14132822 -0.12256499 0.16410679 -0.18714727 -0.09389562 0.08627067 0.0679208 -0.047888312 0.05272256 0.09233836 -0.039686892 0.082862966 0.048161034 -0.0020441175 -0.0780331 -0.17494138 0.028496789 0.11670411 -0.15283397 0.014509225 -0.027865559 -0.11091694 -0.0023700495 -0.06365706 0.16384423 -0.027013315 -0.042120542 -0.0060095205 0.05653093 -0.04854275 -0.029309956 -0.1842106 0.08839974 -0.059739064 0.069515325 0.10514533 0.14887123 0.19978444 0.15162912 -0.09428419 0.20433258 0.19352145 -0.09183977 -0.077728055 0.20113845 0.040249556 -0.1493343 -0.1640502 -0.21997853 -0.052262027 -0.10963215 -0.058554597 -0.13981292 -0.09729456 0.14503197 0.17762546 0.19757521 -0.13544892 -0.079918094 -0.11461683 0.08611464 0.08201626 0.043308437 -0.018215964 -0.094203286 0.013347594 -0.015234177 -0.12893656 0.11734315 0.08235102 0.10684966 -0.13273785 -0.17147985 -0.03856051 -0.030984344 -0.17815554 -0.0355932 -0.07216852 -0.075478934 -0.14632307 0.15211411 0.09307992 -0.12825288 0.053173937 0.07756797 -0.0019465535 -0.11898281 0.0957009 0.06178105 0.03834656 -0.11676006 -0.020072835 0.043493584 0.19140896 -0.0035331782 -0.20865537 -0.062268905 0.13853061 -0.15350309 -0.09750891 0.18206587 -0.09969092 0.12944756 0.17673817 0.18582238 0.039820865 0.091623686 0.0012982712 0.060437232 -0.06579659 -0.034494866 0.16588236 -0.02894752 -0.028274927 -0.0689044 0.17630863 -0.14363098 0.17775483 -0.052657615 0.12797198 0.011710835 -0.15547366 0.07413605 -0.16193616 0.021279847 0.14289486 0.15543646 -0.08218858 0.119360924 -0.1871403 0.27327546 0.13275154 -0.09845394 0.0373279 -0.08007404 0.07311829 0.19842485 0.17197576 -0.030977204 0.20599966 0.22721021 0.1587217 -0.13643171 -0.057868272 -0.10789711 -0.030401638 -0.14408806 0.061922975 0.00069491175 -0.017700624 -0.004890894 0.104787804 -0.13202935 0.0379773 0.041761193 -0.03109784 0.07996025 -0.13021415 0.13135383 0.12243779 0.07873218 -0.017811872 -0.032458264 -0.10539624 -0.067801446 -0.17693186 0.13343756 0.23019539 0.0045417435 -0.03116296 0.07823162 -0.0025345555 0.17119619 -0.106675506 -0.12544127 -0.01055161 -0.12631379 0.16691953 0.09321679 0.03510682 -0.15275642 -0.12672487 0.1988759 0.07272045 -0.12880646 0.096122965 -0.03950055 0.20915446 0.11601247 -0.050677672 0.10426192 0.06385174 -0.13308789 -0.056829933 0.027660852 0.002045967 0.20710607 0.061371356 -0.111697674 0.16809891 -0.122002676 0.14791062 0.029485343 -0.09602881 -0.043963093 0.017885163 0.08986181 0.0042609298 0.068460315 0.021838017 -0.13188954 0.0033159687 0.08182051 -0.035099756 0.028923616 -0.097976655 -0.09337957 -0.06057081 0.023042973 0.18453981 0.19398232 0.06818239 -0.011936643 -0.0041073696 0.19042704 0.22438087 0.15346637 -0.046623327 0.1243654 0.24060023 0.015200407 -0.05980899 0.16283141 -0.017621024 -0.08189206 0.11016139 -0.14852963 -0.1061186 0.0864595 -0.035621587 -0.10142919 0.016268905 0.20227379 0.14586683 0.1822139 0.17973924 0.117855944 -0.16010348 0.17766778 -0.077641144 0.118660666 -0.0795793 0.04822448 0.15215182 0.039885845 0.08854068 -0.080287755 0.09771542 -0.02899609 -0.12978601 0.17197154 -0.11776344 0.029290617 -0.07550028 -0.13409758 -0.1142534 0.024883676 0.13980913 0.09468846 0.046700567 0.1745226 -0.11298267 -0.06015433 0.058902416 0.10022216 0.10734138 0.027888292 0.10971459 0.16752617 -0.16867337 0.05891954 0.16952991 0.15399207 0.001974196 -0.101915196 0.14124665 0.065439604 0.26928157 0.16958454 -0.060238432 -0.18770471 0.094633766 -0.13638122 -0.025839575 -0.12276834 -0.06149301 -0.103517875 0.11280272 0.19445091 -0.06586846 -0.052413847 0.18749373 -0.1794482 0.036126673 -0.09927702 0.04907419 0.13745573 0.036385987 -0.19193093 0.025505612 0.11934613 0.00012347706 -0.066794194 0.21707891 -0.13374811 0.10086035 -0.14058407 -0.19839753 0.07418975 -0.14520358 -0.14194202 0.008752801 0.06300388 -0.1730809 -0.13159855 0.16328101 -0.101240896 -0.12931511 0.031682935 0.19211559 0.17778842 -0.15411113 0.024453163 0.043133777 0.14896986 0.11920418 -0.022895407 -0.114124075 -0.21493414 -0.13480183 0.19472355 0.11999979 0.017192006 -0.038993582 -0.01440716 0.031230506 -0.19263907 -0.051250227 -0.03359045 -0.21626587 0.006829287 -0.09543691 -0.078092754 -0.111571856 0.074367486 -0.032230075 -0.09316802 0.19708699 -0.15066746 0.10929594 0.13282903 -0.11812382 0.18393286 -0.061800778 -0.13690615 -0.0896989 0.09884362 0.120920405 -0.1785109 0.008857477 -0.0056944126 -0.12659504 -0.16434623 0.09234099 -0.0331204 0.022578929 -0.16503511 0.16816261 0.1974485 0.178563 0.02262409 -0.06775987 0.14411841 -0.16540737 -0.08864142 -0.11323146 0.01647455 -0.09204983 -0.036829334 -0.08131774 -0.08369927 0.1318513 0.11561232 0.043327883 0.07484148 -0.010905133 0.0023812386 0.15732807 0.17929628 0.037055913 0.008267689 0.063389115 0.06955985 0.000879875 -0.16473255 -0.17705594 -0.025842592 -0.10434838 0.16448659 -0.107545175 -0.17745745 -0.16380173 -0.06267894 -0.027348943 -0.107712924 -0.18826188 -0.078060225 -0.19056588 0.0025657967 0.055748086 0.046610076 0.12981266 0.08337161 -0.025284588 -0.12025285 0.160418 0.10551493 -0.052400645 -0.017033905 -0.045623995 0.010751907 0.13999145 -0.062117577 0.05238011 -0.15901515 0.1936519 -0.13140303 -0.08468015 0.17760088 -0.004602014 -0.13548328 -0.16983245 -0.13644642 -0.054809745 0.028313214 0.005115731 -0.21383922 0.10705246 0.021440469 0.094165385 -0.050958343 -0.09787439 0.0073483884 0.10088609 0.14726828 -0.15533067 -0.011020216 -0.17360151 0.16558884 -0.15707015 0.0867478 0.14350693 0.16567346 0.08983488 -0.16504197 0.028636001 0.06624032 0.21126969 0.12075991 -0.027010746 0.16850695 -0.056089655 0.13240266 0.17116652 -0.081770964 0.14914636 -0.05997906 0.1511932 0.16700138 0.13139679 0.043063417 0.13261749 -0.04708206 0.012023161 0.03704083 0.047261693 -0.088080816 -0.12682426 0.1540333 -0.17468089 0.051725794 -0.07950663 0.11582106 -0.013347756 -0.07714121 -0.016637634 -0.06711447 -0.057425257 -0.1297417 -0.03915009 0.20530392 0.107803494 0.022532297 0.10343918 0.07180397 -0.021277029 0.102902725 -0.18098688 -0.09651798 0.044193715 -0.025194583 0.04471467 -0.15829685 -0.16714978 0.024782302 0.08582004 0.1449384 -0.0033429412 0.14253683 0.16385235 0.006132202 0.18315773 0.1851612 -0.012035046 0.16066875 0.059667345 -0.19353068 0.018133378 0.17792833 0.034055028 -0.0036991984 0.14713426 -0.0006380202 0.19560751 -0.0718785 0.036980994 -0.10168954 -0.14765932 0.1702645 -0.11642447 -0.1090923 0.028776705 -0.17261389 0.06443265 -0.017491784 0.008159593 0.09504481 0.019555341 0.09228931 0.04801367 0.008206285 0.04245413 0.030128445 -0.16316369 0.107173376 0.16257782 -0.12882529 -0.044034332 0.1825586 -0.039004464 -0.1934652 -0.11928324 0.039845213 -0.20671687 -0.0044691116 0.015233891 0.1379291 -0.01479592 -0.056376845 -0.056770347 -0.15138428 -0.018829688 -0.044380676 0.10566112 -0.019769182 0.19502838 0.10827084 -0.006621187 0.06947432 -0.0017146548 0.17259349 0.12677471 0.1657859 -0.19796757 0.14642502 -0.03659023 0.08147517 0.14744255 0.14556895 0.18498372 -0.028724935 -0.1483961 0.064616285 0.15611592 0.15454182 0.09584922 -0.19289328 -0.12284728 0.18288228 -0.11280077 -0.13525157 0.17361026 0.16010827 -0.12907998 -0.09524409 0.21451116 0.051576372 0.19455114 -0.11780931 0.119092375 0.083650306 0.025771748 -0.01412196 -0.17090651 0.07387484 0.11448342 0.038722318 0.08550217 -0.16554384 0.17874259 0.051535856 0.19614024 0.20590149 -0.08861681 0.15043344 -0.0391659 -0.15404989 -0.051482603 0.09246414 -0.07801908 0.14897469 0.04653364 -0.021493552 -0.0681321 0.16894306 0.14605145 0.14889361 0.13208024 -0.19913454 0.07066615 -0.16963506 -0.08379659 0.08655221 0.013543428 0.16584611 -0.10437013 -0.13007137 0.19697063 0.16791415 -0.07799843 -0.010199449 -0.1637217 -0.048035786 0.15436289 0.0075680786 0.03409031 0.20281318 0.18032013 0.1955614 -0.01755655 -0.20018914 0.07502717 0.06551272 -0.10294035 0.08562747 -0.003662158 -0.073966585 0.13919947 -0.093539506 0.021405466 -0.10368301 -0.06319256 0.17145635 -0.21621843 -0.070552595 -0.13710605 -0.00034871342 0.009286067 -0.034353934 -0.039758164 -0.14522058 -0.07951767 0.17942569 -0.19497277 -0.065157816 0.070455104 -0.16152404 0.12887894 0.08214424 -0.080897935 -0.120852776 -0.104964636 0.20571783 0.0888022 -0.09451475 -0.18087642 0.16014887 0.12906477 0.16069081 0.093945295 -0.17437774 -0.10016521 0.08996992 0.21421129 0.115576506 0.049844332 0.18177387 0.055732097 -0.08783512 0.048858088 0.11746351 -0.14970924 0.040352035 0.1690469 -0.13889085 -0.016616063 -0.05970608 0.18821466 -0.031359144 0.12740742 0.12747468 -0.07437374 -0.10675208 -0.03856523 -0.099817745 -0.14001134 0.047851365 -0.17444414 -0.07697838 -0.036755495 -0.11492385 -0.066008694 -0.1014219 -0.16944058 0.026545305 -0.008848364 0.08799225 0.17884749 0.15479957 0.14968637 0.0034747643 -0.026295638 -0.050632607 -0.14971799 0.047418587 0.24833073 0.24752374 0.23278825 0.013090352 -0.019629858 0.06313013 0.025540305 0.20002607 0.051689442 -0.06648821 0.12703422 -0.12238678 0.00015918065 0.14663662 -0.032065082 -0.15689129 0.014794568 -0.19189854 -0.06608527 0.10302244 -0.09371502 -0.092926815 0.15966758 0.08261133 0.057246797 0.022779802 -0.23265299 -0.07514635 0.13397032 0.06270913 0.07530305 -0.14469944 0.17415214 -0.17326692 0.16323882 0.14298202 0.16460063 -0.14441514 0.014772985 0.060985424 0.044353817 -0.023019115 -0.21129009 -0.1818566 -0.09155081 0.07723642 -0.056849897 -0.24664414 -0.18367718 0.011935675 0.061320867 0.0712705 0.06196876 -0.14848399 0.1566108 0.107076265 -0.10696164 -0.1603975 -0.117479384 -0.075660095 0.06815148 0.047545034 0.09616261 0.16367365 0.030437822 0.16621596 0.10482683 -0.0062374366 0.13220415 -0.10077058 -0.18284273 -0.031985614 -0.01756586 -0.030085087 0.17614721 -0.046764836 0.12066898 -0.04661583 -0.0469821 -0.16384694 0.11784024 0.015237656 0.13814977 0.03916269 -0.023400689 -0.05072526 0.09587527 -0.018715475 0.026293667 0.1473992 -0.09434865 0.054053526 0.04621912 0.017459283 0.09717727 0.13342088 0.065402225 0.059842 -0.13925864 -0.08078629 -0.043292552 0.12981944 -0.044410553 -0.019486317 -0.009984702 0.016429424 0.029024918 -0.064606704 0.07448462 -0.1011553 0.054736756 0.024294877 -0.024798939 -0.061304774 0.0824932 0.10330688 0.075059876 -0.10950652 -0.033664647 -0.11526388 -0.07556602 0.003087053 -0.111454986 0.03664191 0.08451985 0.16335359 -0.05590351 -0.035370205 -0.034802873 -0.035047367 -0.0017484025 0.058068685 0.21943982 0.24194603 0.22120225 -0.047055744 -0.22662964 -0.22962402 0.15604328 -0.1518047 -0.017895296 0.0554381 0.06918714 -0.22134727 -0.25081608 -0.23620275 0.08624276 -0.013387429 -0.112300195 0.017661886 -0.17689306 -0.13673799 0.016788458 0.12817319 -0.23257898 0.04953285 -0.21017875 0.0189448 0.093706824 -0.15730147 0.08676328 0.0037514202 0.19113348 0.042030927 0.14282288 -0.22556503 0.21498382 -0.13774516 -0.00896411 -0.07095794 -0.16594231 0.15844052 0.050622318 0.15825267 -0.06976644 0.25215834 -0.06325592 -0.06608623 0.014333369 -0.09562407 0.22361796 0.19644955 0.017311865 -0.10869133 0.20623623 0.22338241 -0.17543569 0.21283086 -0.19126043 0.0066484073 -0.094880894 0.03837866 0.02480337 -0.21679002 -0.03761731 0.038320526 0.17520285 -0.11875706 0.13869418 0.25212148 0.27819687 0.13146758 -0.18653542 0.13565615 0.118659966 -0.2052867 -0.20263179 0.19510978 -0.18558203 -0.14389327 0.07131264 -0.14336856 0.04838593 -0.058984287 0.2696108 -0.16103688 0.031759918 0.047161676 0.024807144 -0.1902858 0.25356066 -0.10305028 -0.022868482 0.12442221 -0.17206505 0.048243783 0.17900474 -0.08670072 -0.24076918 0.23629478 0.2644293 0.26728448 0.031272877 -0.2692037 0.16586435 -0.052760106 -0.212837 -0.27237347 0.19030873 -0.026925733 -0.06620774 0.22309084 -0.15236768 0.10673434 -0.09402257 -0.1868122 0.22566691 0.02480134 -0.16131927 0.22796133 0.18084468 0.009233207 -0.16746934 0.1357128 0.024109935 -0.018617122 0.20130908 0.1389171 -0.23186101 -0.039186828 0.12253519 0.09254446 -0.13241954 0.14652371 0.20915237 -0.08907714 -0.043675896 -0.003333463 -0.1910837 -0.0843286 0.1630464 -0.08707555 0.045976315 0.18367414 -0.05889485 -0.031346772 0.15755978 -0.086505 -0.118855424 -0.10404739 0.16193388 0.06393901 -0.19772124 0.21932547 -0.20098732 -0.13995713 0.19563939 -0.18598342 -0.06987693 -0.19746457 0.02971385 0.22778377 0.05048305 0.03475165 -0.23066929 0.14634849 0.044234507 0.03530324 -0.15483451 -0.2235498 0.09007244 -0.20442149 0.09486936 0.22717462 -0.007831796 0.22941366 -0.017433245 0.19259435 -0.11343945 -0.17185897 -0.026218716 -0.12923245 -0.12310777 -0.027281418 -0.16851923 -0.031281725 -0.06911759 0.18133064 -0.004794563 0.04917381 -0.23268925 -0.039319456 -0.07060607 0.22967766 -0.06556135 0.25610754 0.02045251 -0.1927301 0.02649972 0.06638074 0.08799924 0.18116415 -0.06419882 0.08794697 0.12638552 -0.16045924 -0.011516834 0.1352915 0.14385943 -0.076746196 -0.1015962 -0.12464757 0.051914576 -0.13449414 0.15365489 0.16844843 0.10659424 0.16362242 0.08805743 -0.22242056 -0.20561916 0.037531972 -0.067411095 0.18415126 0.21685669 0.015222087 -0.1059734 0.14462395 0.12837349 -0.11744953 -0.22618958 0.15214142 -0.23720568 -0.19688137 0.093180224 0.103200436 -0.25103682 0.17311348 -0.112026535 0.1191862 -0.19736236 0.15843682 -0.23919071 -0.07396198 -0.06573699 0.04083829 0.1419653 0.20704769 0.033900358 -0.1424365 -0.094543375 -0.21074577 -0.0788907 -0.20992553 -0.2484988 -0.04813482 0.15794353 -0.26319155 0.18797536 0.029007526 -0.019436218 -0.21049322 0.08593736 -0.023228882 -0.21291146 0.18471 0.058446016 0.19478826 0.035721228 0.21842285 0.054483328 -0.02280719 -0.05900275 0.03393059 0.16241428 0.18361811 0.09705164 -0.13406557 -0.14064063 0.13902512 -0.07208252 -0.042204402 -0.09701459 0.15337513 0.14309008 0.06443838 0.009389731 -0.0031843395 0.1630456 -0.17652199 0.17187984 -0.13861068 0.062179726 0.13202204 -0.13060647 0.018283237 0.1533753 -0.19013864 -0.22091252 0.06851545 0.21292669 -0.17560358 -0.0866968 -0.1278588 0.10794995 -0.19612043 -0.1726787 -0.10681648 0.15271574 -0.15850718 0.04186015 -0.03921516 0.09912537 -0.16776809 0.24558048 0.008289887 0.106042996 0.23132443 -0.20851843 0.22729918 0.022351181 -0.05930894 0.09681723 -0.13277441 -0.12911537 0.098169126 -0.14891654 -0.043044724 0.089695826 -0.16715305 -0.004250725 0.10133534 0.014906334 -0.016696451 -0.07071334 0.03412266 0.23125589 0.015979432 0.12798057 -0.253636 -0.22830337 -0.06233038 0.054991413 0.2318841 0.05598059 0.056682725 -0.022611925 0.08354698 0.20882957 -0.12933022 -0.03199235 0.064062394 -0.040224425 0.022774063 0.18907547 0.075780354 0.047982693 -0.20332171 -0.06343716 0.18123922 -0.11289773 -0.14641222 0.0076821866 0.147869 0.08702866 -0.10750208 -0.017139567 0.17995222 0.100739986 -0.25062954 -0.038025692 -0.09904479 -0.014793375 -0.14923775 0.11121105 -0.15774098 -0.21237154 -0.20184487 -0.052080818 -0.031948894 -0.141993 0.24081205 -0.20575073 -0.1918915 -0.041617688 -0.11235141 0.00022688243 -0.119709514 -0.011233801 0.035272103 0.043333627 -0.16162503 -0.15460144 0.2176901 0.15875565 0.22688773 0.14066225 -0.04708945 0.16442573 0.026217002 0.103051834 -0.22456867 -0.16707303 0.22912744 0.25551143 0.22504315 0.11730389 0.18525597 0.052818824 0.10305096 0.014565798 -0.23280664 -0.0769936 0.14909588 -0.07807511 0.060349435 -0.25987706 -0.09790581 -0.048232403 0.15421194 0.086421415 0.15578373 -0.10485418 0.1485011 -0.12794548 0.026911613 -0.21599314 0.09746322 0.13229884 0.04455469 0.014248762 -0.010274144 0.004304033 -0.24403489 0.0016349824 0.21906528 -0.12391074 -0.07617616 0.16650917 -0.09046813 0.16129763 0.20662959 -0.036575325 -0.020841433 0.12704942 0.1874545 0.06623694 0.1875101 0.040135782 0.07852595 -0.2591278 -0.20162062 0.10932401 0.08320331 -0.1178601 -0.08447416 0.17659314 -0.13214242 -0.21939878 0.15045905 0.24855512 -0.07423244 0.008688833 0.21681729 -0.07406393 -0.13571744 0.20999917 -0.08861776 0.25656253 0.08646547 0.032299645 -0.037154336 0.1817849 -0.18264854 0.2049093 0.021417134 -0.066263355 -0.08157338 0.053911265 0.09552371 0.2111028 -0.21004188 0.087810606 -0.10552284 -0.20641078 -0.20894271 -0.12093315 -0.17750594 -0.17592028 -0.20058174 -0.00266471 -0.16815479 -0.18984215 0.24958271 0.03452461 -0.05840107 -0.02776167 0.04533342 0.032108657 -0.14739063 -0.07997042 0.020123392 -0.13330619 0.17459542 0.19673489 0.2553725 -0.14792927 -0.111412905 0.07949786 0.032183547 -0.052554373 0.0683759 0.20616937 0.043862633 0.22118242 0.07626004 0.16042416 0.021116666 -0.012490322 0.01477056 -0.16175283 -0.00742006 0.22959936 0.27877748 -0.12679659 0.024708051 0.253404 -0.12190622 -0.2346752 0.20141414 -0.17116691 -0.12016997 -0.014532868 0.0903755 0.022459611 -0.17830932 -0.14747593 0.15782958 -0.14695707 0.1234652 0.20935054 0.014737519 0.1712488 0.20529708 0.21627125 -0.17855217 -0.014833748 -0.02905879 -0.0758883 -0.18765034 0.24176599 -0.22727074 0.12436968 -0.11422841 0.22411604 -0.018264055 0.07964991 0.19862552 -0.14972381 -0.106301 0.0024853135 0.020420661 0.059401 0.023264686 -0.21217151 -0.090980425 -0.02094919 0.26584053 -0.12207223 0.17708483 -0.22477736 0.2050638 -0.16059287 0.181978 0.25682828 -0.16835088 0.15572469 0.26328588 -0.19242863 -0.084558316 -0.20711558 0.14492205 0.025780873 0.15630034 0.1484126 0.25156417 0.031657673 0.096550174 -0.039494187 0.12162787 -0.08879827 0.2470289 -0.09468824 -0.093322314 0.19680977 0.15134744 -0.15295832 -0.14378019 0.12482058 0.055817112 -0.21792656 0.22434902 -0.21562117 0.005025882 0.008715953 0.014051485 0.1886221 0.18555635 -0.12808372 -0.2094664 0.2189165 -0.17846474 -0.16344647 -0.0596516 0.23620614 -0.11515354 0.13965502 -0.17596127 -0.10281798 -0.054102927 0.13620128 0.1459537 0.20213734 0.22871576 -0.12372751 0.05701148 0.027006198 0.19489904 -0.04790004 0.10395548 -0.04892965 -0.069534585 0.1564965 -0.20658517 0.22669014 0.031381093 0.21925774 -0.12697607 0.13080938 -0.16268335 -0.03343474 -0.21550837 -0.15561195 0.15860319 0.024360495 -0.15297547 -0.07249384 -0.2518736 0.0916615 -0.0021095218 0.05843194 -0.23878606 -0.011077459 0.18957748 0.06760334 0.09499496 -0.100309014 0.20342802 0.14176911 -0.17183504 0.07641291 0.17820244 -0.077931575 0.21806248 0.15871112 0.056110095 0.17160934 -0.160133 -0.12034321 0.13205059 -0.049347255 -0.18456563 -0.007620435 -0.007997766 -0.048690334 -0.13992453 -0.25599432 -0.059807215 -0.19416524 0.14351194 0.27377972 -0.0095946165 -0.18326505 0.15287882 -0.078694105 0.24693592 0.0092545515 -0.10413395 -0.14906494 0.16521695 0.188634 0.019092795 -0.12905456 -0.0033881918 0.12327841 0.021225536 0.030432224 0.27982715 -0.09281001 -0.10970066 0.07357707 0.013176708 -0.15372324 0.20905657 -0.16268331 -0.23983501 -0.20951073 -0.13577555 0.1820044 -0.11952791 -0.09330794 -0.1317405 0.005053203 0.036928207 -0.22133914 -0.17539887 0.0913245 0.100086346 0.21840544 -0.17924713 0.16688672 -0.05341797 -0.008883728 0.08272692 -0.18993019 -0.25618288 -0.20605019 -0.18308444 0.031256814 0.12160398 0.080168486 -0.0023538498 -0.030660525 -0.23092838 0.18871787 -0.17262517 -0.058289368 0.15947384 0.17977513 0.05487231 0.029271321 -0.23309392 -0.23641174 0.166407 -0.058987115 -0.050862335 -0.2601173 0.15406895 0.19348632 0.14238837 0.1471067 -0.20880935 -0.19720675 -0.07131909 -0.10764855 0.2216667 -0.19961146 0.15777919 -0.21053669 -0.009187886 0.053686928 0.0059263143 0.0061079646 0.07604711 0.024399167 0.07376103 0.10944434 0.050204303 -0.08227548 0.013202382 0.036555987 -0.027300593 -0.049219474 0.13189764 0.021826306 0.15828414 0.09127423 0.014827532 -0.18153127 -0.15117283 0.04019837 0.16408408 -0.1647473 0.076622844 -0.085617244 0.12996641 0.13388546 -0.15200683 -0.13020603 0.19756123 0.101966634 -0.053877726 -0.090511456 -0.005205385 -0.13909303 0.09983642 0.12956683 0.16015016 -0.050418247 0.15314783 -0.10411434 -0.05295085 -0.06529228 0.08715026 0.037450727 -0.16095261 0.13502496 0.021211294 0.1801609 0.15798189 -0.16459227 0.005067221 -0.08127877 0.04477231 -0.14501078 0.06659809 0.13189097 -0.045215867 -0.057320666 0.11238615 -0.18269417 0.15359065 0.13372801 0.08339004 0.029687583 0.13561428 -0.014062676 0.044056937 0.15759039 0.042519208 0.06692755 0.12756974 -0.002913254 -0.10528784 -0.04462933 0.16636494 -0.1442779 -0.15646926 0.05040479 -0.062025066 0.13486189 0.21363933 0.21579757 -0.023549018 -0.041296415 -0.18966489 -0.11420254 0.07398273 -0.15875436 -0.051115915 0.13617589 -0.15802895 -0.048915382 -0.124353126 -0.18179767 -0.18348871 -0.07752633 0.14183371 -0.19041738 -0.14576666 0.10663643 0.10727485 -0.038087994 -0.08044789 -0.0009544477 0.1279036 -0.16957071 -0.101932 -0.10008359 0.04612949 0.09541375 0.06434952 -0.055324487 -0.13562062 -0.12214911 0.04373403 0.15079665 0.13818507 0.15718715 -0.16011578 0.13622499 0.0026676715 0.02997674 -0.053102594 -0.030535592 -0.06506837 -0.024598816 -0.16154179 -0.18378156 0.03492041 0.013362961 0.01639437 -0.09565812 0.032786425 -0.15867552 -0.07944242 0.17108425 -0.12272056 0.094710894 -0.05529375 -0.034631286 0.07795131 -0.09997903 -0.10164617 0.1563193 0.15892947 -0.13084677 0.025505356 0.07719516 -0.10045787 -0.16343151 0.04054642 0.035383973 -0.11649595 0.092691496 -0.13940105 0.13732874 -0.04708579 0.07248367 -0.15972571 0.011355588 -0.19253097 -0.07010183 0.11093522 0.16730967 0.00158696 0.061607458 0.2236156 0.18546712 0.15448895 -0.22193912 0.14132202 -0.025657937 0.13403116 -0.07059446 0.039158743 -0.15932025 0.024302945 -0.09690978 0.17697679 -0.16179305 0.13196866 -0.007161814 0.07830109 -0.032691903 0.053449254 -0.16827908 -0.12769125 -0.08967282 -0.1058914 0.15026881 0.020764831 0.1361884 -0.1234785 0.024565028 -0.15357283 0.06894081 0.19974066 0.15703166 0.16135326 0.16970441 -0.1881864 0.0012895635 0.077235945 0.13341813 0.20498033 0.005464895 -0.11637877 -0.09292394 0.004323876 -0.18624209 0.09444225 0.17377618 0.13079606 -0.051282924 0.018048786 -0.0522357 -0.059067324 -0.112788066 -0.007297279 -0.21972716 -0.09656313 0.07677827 0.023044288 0.01910106 -0.14442387 -0.11667727 0.059911963 0.18519567 0.18538369 -0.013460612 -0.086935796 0.043682724 0.073113225 0.17891294 0.06395407 -0.10139779 -0.1967594 0.12822147 -0.20931396 0.03389438 0.09736396 0.03708032 -0.04685805 0.073847495 -0.11719466 0.13945535 0.14766729 0.07710933 -0.168246 -0.026839316 -0.1854501 -0.09704586 0.17189796 0.18361421 -0.10743893 -0.19042194 -0.17891012 0.054694146 0.056470685 -0.1538564 -0.17246082 -0.15603891 0.15336806 -0.057036012 -0.0825022 0.2209152 0.16058102 -0.080250844 0.06710524 0.100890964 0.017979495 -0.08291886 -0.0138149075 -0.08074249 0.19374667 0.101205714 0.011030051 -0.02929308 0.010995929 -0.09086865 0.02614307 -0.03906186 -0.06955005 0.09875079 -0.17172939 -0.10991967 -0.19053161 -0.11353076 -0.031552944 0.09894222 -0.032107364 0.03423113 -0.08832555 0.13011028 0.15978354 -0.14112464 -0.0033385928 0.07936357 -0.085120656 0.03253035 0.17558295 -0.036379654 -0.05150938 -0.018027753 -0.06269735 0.11195069 -0.03184092 0.065675944 0.18097101 -0.126113 0.05529699 0.046321318 0.15538332 0.060290832 0.17867832 0.038081862 -0.056144144 -0.008287776 0.09891813 0.0718485 -0.011028393 0.008182272 0.15501854 0.006307709 -0.12772009 -0.016015505 -0.10547657 -0.13280961 0.11386279 0.1466696 -0.09012239 0.003347239 -0.054970864 0.13269809 0.12972234 -0.09148796 -0.14366956 0.06268372 0.022617104 0.15543976 -0.07200788 0.10032284 -0.09818165 -0.11551004 0.11441186 0.013029208 0.06504573 -0.009671802 0.20778558 0.20275609 0.033456117 0.064371996 0.10019462 -0.06471308 -0.061814122 0.076556735 0.024821658 0.06574291 0.19444352 0.09459825 -0.04977221 0.05159351 -0.017879842 -0.097121745 -0.09851963 -0.05209854 0.023879627 -0.10242688 -0.1838124 -0.16897418 0.01982567 -0.05355233 0.037157804 0.13991344 0.15340832 -0.08304817 -0.18264638 -0.0913367 0.03953032 -0.083679736 0.05411121 -0.17349628 0.09153719 -0.11809095 0.18025565 0.079653464 -0.014602478 -0.16782464 0.12814601 0.029873896 -0.00024336262 0.0036054612 0.07352278 0.06367634 -0.18833117 -0.005081163 -0.07806891 -0.13798454 0.05069738 0.12724471 -0.049804714 0.022121739 -0.10998549 -0.05474363 -0.00742709 -0.101399235 0.09686874 0.09955533 0.14491631 -0.104264334 -0.090809435 0.15088122 -0.110620305 0.1343098 0.1663131 0.16855761 0.002482635 -0.17971702 -0.072683096 -0.031468693 0.18681845 0.061663903 0.022605265 -0.13963592 0.1743836 0.05526599 0.10637186 -0.07732962 0.05791692 0.06094678 -0.07052472 -0.0073485435 0.032499067 -0.086807966 0.03724661 -0.08113222 0.151291 0.1408945 -0.07800763 -0.06630631 0.121463165 -0.11314407 -0.16273662 0.15785238 -0.022526441 -0.11408608 -0.1796869 0.06381669 -0.2310098 0.08499629 0.02103576 0.03247698 0.12771608 0.09121093 0.17878987 -0.0061609223 -0.015503412 -0.015663814 -0.13145804 -0.15452597 0.024083396 -0.02798199 -0.14900813 0.000568193 0.09508638 -0.011293803 0.16280693 0.023628436 0.035557035 0.16331801 0.088805474 -0.078894965 -0.008880634 -0.13026668 0.10988575 0.06598108 -0.17854501 -0.07188395 -0.025699638 -0.0712657 -0.09170402 0.10217898 0.14876905 0.1505249 0.10018917 -0.007871332 0.22516379 0.15290125 0.0023863097 -0.12386839 -0.15845975 -0.15327363 0.13954878 0.018378606 0.14778726 0.027808757 -0.14290296 -0.033132385 0.15176493 -0.1532254 -0.01865592 -0.041709464 -0.18605508 0.09587561 0.033021327 0.18214776 -0.115238205 0.19905126 -0.071502835 0.0886137 -0.016331265 0.09206929 0.14956263 0.05006157 -0.106255226 -0.085043415 0.19780907 0.17167415 -0.033934884 -0.09257526 -0.11999748 -0.015046489 -0.08812111 0.023609312 0.1492641 0.059647664 -0.14378594 -0.03620263 -0.15150818 -0.18869695 0.14086244 0.13087432 0.119977996 -0.054478 0.049989864 0.06445433 0.04448417 -0.13436949 0.074000165 -0.052925747 -0.1073528 0.14830863 0.20268181 -0.13506447 -0.13624574 0.077116 0.15725662 -0.031967707 -0.009572013 0.06861531 -0.16907868 -0.0561707 0.11762249 0.19639003 0.023933502 0.059407134 -0.1395275 0.09667556 0.029505417 0.08438947 0.22521563 0.008186671 -0.035824116 0.087588295 -0.14517747 0.03348553 -0.13104582 -0.0041734166 0.16118503 0.05826021 0.08172228 -0.072738476 0.029065557 0.12635098 -0.04951884 -0.11693077 0.1451669 0.107752755 -0.03804819 0.08297405 -0.057373013 -0.22359492 0.047806587 -0.19765826 0.16076714 0.20953864 0.1382792 0.06344223 0.04139401 -0.1059807 0.13515519 -0.09241974 -0.13474122 -0.09083169 0.013990328 0.012221159 0.031379893 0.12277292 -0.10614193 0.08346986 -0.122134276 -0.023775032 0.09265659 0.0804671 -0.0730635 -0.12151341 -0.0727442 -0.16102202 -0.09332112 -0.18790704 -0.18034971 -0.015972108 0.016419472 -0.13982421 0.0010122708 -0.071131706 0.01561043 0.10146352 -0.0031863656 -0.012128297 0.17987987 -0.02707476 0.09805015 0.18956654 0.0028152068 0.039740194 -0.05138 -0.17565233 -0.03623097 -0.14247198 -0.11886504 -0.095898904 -0.09928035 0.08643992 -0.17619962 0.062858164 -0.008354821 0.12187648 0.12644765 -0.047025006 -0.118073285 -0.07251379 -0.141331 0.15932785 0.15069042 -0.106588826 0.014401974 0.012914998 -0.04919025 -0.03312629 0.061224278 0.09756755 0.12682608 -0.12554365 -0.15428641 0.041002657 -0.02412439 0.10807953 -0.08228514 0.1434893 0.0048389747 -0.12429211 -0.2229979 -0.036803365 0.04931546 -0.07339672 0.13715696 0.116568126 0.19450015 0.086058594 0.25591496 -0.124191284 0.13068435 0.06786255 -0.10784844 0.06931848 0.1658583 0.17993942 0.022293024 -0.16864075 -0.12859324 -0.07712217 -0.118834354 -0.14001383 0.08095923 0.22908266 -0.11334759 0.0045805373 -0.154501 0.019853402 -0.09006057 -0.14133912 -0.07344822 -0.12957191 0.042966727 -0.18978241 0.05428175 -0.09347071 -0.11670359 0.14843632 0.0012382417 0.016659293 -0.028397927 0.00465201 0.032918766 0.10445443 -0.052964598 -0.0723409 0.09792048 -0.052082777 0.05298862 0.039673645 0.08885974 0.17916946 -0.055610303 0.13977854 -0.17565966 -0.0009195913 0.079617724 0.13991125 0.18366992 0.075232945 -0.12100603 -0.088890664 0.08054179 0.0860764 0.0008065529 0.059968397 -0.060062267 -0.045924373 -0.03689679 -0.10871864 -0.17092305 0.023692304 -0.05013263 -0.04496979 -0.16442895 0.082038715 -0.003310799 0.11928248 -0.010218476 0.047380917 -0.10944357 -0.04715813 -0.12239799 0.07139656 -0.071024045 0.1942968 0.04477882 0.096811734 -0.09943561 0.18873304 -0.17669064 0.14601949 0.1260387 -0.14774586 0.1244682 0.07053396 -0.19055578 0.035848532 0.1464076 -0.17226669 0.009536935 0.044341553 0.020195067 0.16511002 -0.08972163 0.010052283 0.17711373 -0.009249539 -0.059464622 0.06915903 0.15223758 -0.05651071 -0.04899756 0.06829579 0.06330616 -0.0969089 -0.14916585 0.06788808 -0.13647619 -0.087471455 0.17050315 -0.025010828 0.070097506 0.17927524 0.026503691 -0.14367934 0.12005345 0.19500779 0.07058046 -0.12522772 -0.111775436 -0.006326618 0.12219819 -0.17874515 -0.1442369 0.18830591 0.050717402 -0.15482022 0.19060764 0.05504387 0.03468417 0.07661598 -0.1506226 -0.027709013 0.038866106 -0.009830816 0.1122761 -0.05044479 -0.16323772 -0.028719438 -0.08920464 -0.020206908 0.04849685 -0.039156727 -0.19120394 0.06642612 -0.115693025 -0.105595976 -0.16871917 -0.10469932 0.122124106 -0.12175041 0.0780312 0.059582338 0.17336287 0.18638441 -0.13777003 -0.1212355 -0.13104613 -0.16954134 -0.020848576 -0.046567112 0.13818961 0.08330994 0.057796907 -0.115523264 -0.14429066 0.11968191 -0.037286118 0.090722814 -0.045307778 -0.15245694 0.20326588 -0.12394942 0.11967076 -0.19209881 -0.232728 -0.15414362 -0.035063423 0.10290518 0.08079515 -0.09932813 0.19256586 -0.013382054 -0.110561766 0.008312241 -0.051600702 0.16613369 -0.027186323 -0.019506589 -0.11191762 -0.12573053 0.07738122 0.08790256 0.14713417 -0.08100305 -0.008980474 0.07513542 -0.13828343 0.13450727 0.016953968 -0.0023285022 0.16838305 0.011768009 -0.14972986 0.17288947 0.040912014 0.11643621 -0.06668323 0.022905318 0.1858648 -0.13310635 0.09112888 0.10553481 0.20811051 0.12910596 0.056236375 0.10467771 -0.07326362 0.17067017 0.1648677 0.095297135 -0.04424581 -0.120402545 -0.0791413 0.16881664 0.095278315 -0.016037866 -0.029424706 -0.109617405 0.015438182 -0.074970044 -0.009319971 -0.16031851 0.19034968 -0.02383612 -0.11417084 -0.029863909 -0.028569056 0.14721093 0.12808831 0.1959402 0.14630967 -0.1355152 -0.12305581 0.09572586 0.16863121 -0.004708249 0.156368 -0.028541865 -0.007682587 0.014622927 0.14286013 -0.10773759 -0.06368334 0.10004078 -0.08017231 0.05663385 0.013725908 0.05804181 -0.092720285 0.16188848 -0.03202516 -0.18497582 -0.16608353 -0.0447547 0.03358834 0.056958035 0.14379127 0.06991454 0.18251868 0.008883091 0.015534447 -0.0680506 0.05182717 -0.14490825 0.15073943 0.17256282 0.011151064 -0.038203456 -0.12729402 0.18235278 0.17795254 -0.008087724 0.13642225 0.18426238 0.18177477 0.032094054 0.056867093 -0.028477618 -0.035214305 -0.079311475 -0.11489165 -0.019502282 -0.002108337 -0.12194477 -0.11148881 0.056137357 -0.029902713 -0.0999299 -0.19132929 -0.045454595 -0.1452259 0.16681077 -0.14278223 0.14166652 0.036857024 0.020024683 0.118157685 -0.114999436 0.021947771 0.21424358 -0.14013942 0.17334022 0.008257172 0.14946662 0.17757854 0.031599022 0.03577301 -0.114393786 -0.17417514 0.040216006 0.0021273207 0.20299293 0.01708087 0.16680582 -0.14859591 -0.11487304 -0.17180476 -0.008825387 0.036972877 -0.13161206 0.07660076 0.14439493 -0.050613645 0.03876829 -0.13595985 0.072594985 0.044165514 -0.0019147254 0.071197264 0.19175133 0.14491676 0.052946985 0.07534771 0.006141417 -0.08880102 -0.19015081 -0.04804703 0.031321466 -0.17757314 -0.1378918 0.038646102 0.0057641785 0.051610634 0.1795302 0.09510622 0.005405016 0.099358834 0.043717127 0.21124902 -0.1507434 -0.008311234 0.11620542 0.14029308 -0.09091581 0.042059463 0.06796934 -0.118755154 -0.12712403 -0.14240752 -0.09229353 0.14921075 -0.027703669 0.07321703 0.21134533 0.21937656 -0.13995384 -0.17404418 -0.20702411 -0.017381292 -0.11420097 0.1381227 -0.091746695 -0.09107668 -0.18633412 -0.025146263 -0.11155092 0.006505412 -0.04287703 0.09915701 0.1481943 0.051268827 0.10711659 0.16853938 -0.0461209 0.13134688 0.08140441 -0.110339545 0.03880629 -0.18273678 0.12373383 -0.05743092 0.1259571 -0.08667014 0.18953305 0.1253631 -0.02813633 -0.14036758 0.055927433 0.08060788 -0.16160357 -0.11848684 0.06698911 0.19765154 0.031776033 0.21170345 0.15293308 0.10477736 0.14584555 -0.12817846 0.11888028 -0.079759896 0.16829906 0.13606814 0.012906986 -0.17639068 -0.16107048 -0.121854715 0.07204286 -0.17414588 -0.1994601 -0.14649932 0.0021456159 0.084626034 -0.050893284 -0.031013316 0.06471692 -0.13728563 0.14138915 0.041663934 0.06972792 0.00774227 0.04348248 -0.09742934 -0.06513233 -0.17407346 0.1461252 0.13084139 0.16181202 -0.08163046 -0.1350542 -0.05320178 0.045058295 0.027096037 0.10818296 0.05028293 0.15241536 0.014183427 -0.18863976 0.058782876 -0.0028012267 -0.14287339 -0.033883628 0.07325092 -0.040855307 -0.114501536 0.18303184 0.07711869 -0.060687117 0.21358462 0.17012934 -0.008514294 -0.14839259 -0.2130456 -0.06928349 -0.16562425 -0.16396031 -0.038238134 0.14246088 -0.20124826 0.17074558 0.16634198 -0.15934965 -0.12998901 0.03486376 0.1818762 0.021979164 0.04317881 -0.08493388 0.13941438 -0.041954685 0.11477864 0.15730892 -0.12275718 0.112879135 -0.10223898 -0.0069242744 -0.10356341 0.15063731 0.040169373 -0.07781578 0.13760002 0.21412292 0.1324327 0.05156753 0.107806556 0.13248746 0.1421118 0.13491637 0.056630637 -0.14057036 0.05392044 -0.17463847 0.11135219 0.05243431 -0.13522135 -0.14166734 -0.18312764 -0.17853208 -0.037282772 -0.1795622 0.05983768 0.19031677 0.08721385 -0.16910326 0.108953886 -0.16988938 -0.078088515 0.09569472 0.1448595 -0.13686742 -0.052001398 0.16428363 0.1641857 -0.01701287 -0.035140764 0.1087747 -0.19574481 0.0025655804 -0.07947312 -0.03571009 0.11451004 -0.064411476 0.1583666 -0.03186258 0.0905888 0.15753642 -0.11569352 0.011292059 0.097275704 0.2085977 -0.052197337 0.13241312 -0.060323678 -0.17847985 -0.03915292 -0.12713833 0.11707355 0.13603435 -0.18669294 0.12234321 0.12565897 0.037753865 -0.059005316 -0.16294178 -0.17516738 0.049196407 0.16471998 0.061463162 -0.027185056 -0.1053204 -0.19205977 0.027370201 0.06493708 -0.13799766 0.10512757 0.14897797 0.13467138 0.076422036 -0.12641518 0.06649391 0.18336254 0.004721116 0.08729032 0.0767787 0.070270486 -0.04402083 -0.05112148 0.16660467 0.056130223 0.1709628 -0.034633443 -0.007241873 0.1363335 -0.04460407 0.11310525 -0.07357646 -0.1053929 -0.19157551 -0.012739625 0.060203075 -0.0024464119 -0.045259684 0.118559726 0.2015953 0.13544782 -0.13315183 -0.1697345 0.019697672 0.022327295 -0.21662737 0.16471852 -0.03538104 0.15133435 0.14374244 -0.106627956 0.18065426 0.15912 0.101705216 0.12771188 0.0029860686 -0.0483089 0.10910975 -0.016791325 -0.06660755 -0.020160021 0.06282486 -0.035310797 0.016116604 -0.028177176 -0.06307963 0.07920953 -0.07346579 0.09993353 -0.017828515 0.072404906 0.0058236406 0.06581438 -0.08463249 0.0498717 -0.15796421 0.17492639 -0.19651726 -0.19552614 0.102529146 -0.01994001 -0.015099878 -0.004403969 0.030700272 -0.09157928 0.10759728 0.00444707 -0.050656047 0.18733758 -0.026829561 -0.14344312 -0.08038348 -0.19213699 -0.06289086 0.14500327 0.06529519 0.09991447 -0.09808179 -0.12818398 -0.040244564 -0.09863261 -0.047608305 -0.093179464 -0.107083246 -0.061000686 -0.0027781012 -0.011441902 0.14173467 0.12683398 -0.06886794 -0.00663986 -0.04446925 0.20183024 0.14095084 0.029493883 -0.03110976 0.031213421 0.04122143 0.13151029 -0.13097036 -0.05649662 -0.1669312 -0.13222884 0.049256556 0.16979091 0.20514633 0.05034785 0.20086168 -0.15403609 -0.15988244 0.16019107 -0.008384249 -0.18167622 -0.18575713 0.093696944 -0.076563224 0.03919993 0.010113219 0.056111112 0.03743926 0.13413897 -0.09016419 0.072158076 -0.10007328 0.06269322 0.19288927 -0.06444886 -0.057815943 -0.14002135 -0.028563188 0.06989589 -0.055360552 0.111645475 -0.1032461 0.040443756 -0.13181597 -0.13769996 -0.021138536 0.20034462 0.053794313 -0.11892669 -0.12703529 -0.19692911 0.024474252 -0.17612825 0.008699673 -0.12278239 0.06194523 0.13565844 0.0629278 -0.079323225 0.08591839 -0.19337727 -0.09641424 -0.11102241 0.054898195 -0.10632419 0.1617424 -0.17165068 0.0768988 0.07136409 -0.15867479 0.031220913 -0.06944118 -0.07776142 -0.18851778 -0.15231898 0.11248122 0.06136626 0.13822849 -0.12390937 -0.1882438 -0.21690598 -0.0072744424 -0.103796355 -0.12836012 -0.04855106 0.0875191 -0.1896843 -0.2403111 -0.05938558 -0.2902279 0.084882386 0.09085783 -0.011730349 0.1670508 0.1813479 -0.009753269 0.04264437 0.17034279 -0.097135976 0.11091543 -0.04235402 0.20652834 0.05944408 0.09500798 -0.16783784 0.07909669 -0.16068298 -0.25592172 -0.19618611 0.06366568 0.052620668 -0.1532068 -0.12672508 -0.07486643 0.025689183 0.09336526 0.17543067 -0.13548608 0.020613562 -0.012572509 0.089665875 0.18024752 -0.17031245 0.003908609 -0.20328397 0.04793282 -0.11593342 -0.22840364 -0.12697344 0.14206356 0.07502333 0.13283417 0.052747015 0.09973006 0.13192964 0.17512885 0.1633932 -0.20221944 -0.02013861 -0.20742455 -0.05420261 0.10381879 -0.2431965 -0.17238721 -0.11913077 -0.14079401 0.022871444 -0.07801701 0.021659024 -0.18623872 0.046430774 0.034289982 0.102099635 -0.21525459 0.08785561 -0.17555703 0.15482427 -0.029018365 0.069067486 -0.11426391 0.07805687 -0.11713888 0.08890064 -0.23055929 0.053292803 0.15569603 0.107286796 0.013797701 0.015549184 -0.011480441 -0.122072466 -0.059412237 -0.017726155 0.044386778 -0.1282362 -0.18026684 -0.070569485 -0.19483717 -0.1604001 -0.062202293 -0.19512062 -0.0694062 0.13562216 0.03998349 0.088816985 0.07432375 -0.035674635 0.01635032 0.13724473 -0.029389692 -0.18151216 -0.09749957 -0.10226368 0.017284296 -0.21094634 -0.19026762 0.077512145 -0.13567518 -0.08168618 0.14422692 -0.01329495 -0.151424 -0.093970664 -0.013249089 -0.1707684 0.054454442 0.09153737 -0.0008000281 0.001668801 -0.026698325 0.10659415 0.039225064 0.010319317 0.009706981 0.062411092 -0.02357619 -0.11492764 -0.1347146 0.090771556 -0.058701243 -0.1997075 0.09293457 -0.202443 -0.2483531 -0.16184072 0.14428169 0.14364901 -0.07150253 0.13665372 0.027764393 -0.014868182 -0.20728998 -0.07519552 -0.114888296 -0.20190191 0.13707031 -0.06984197 0.06675391 0.13137993 0.15920682 0.009113467 -0.026602559 -0.09269022 -0.17026374 -0.17702067 -0.21577373 -0.18109635 -0.13171932 0.043910615 0.11386322 -0.029763563 0.18558624 0.06505631 -0.12664694 0.0933962 0.09372197 0.043756776 -0.07788712 0.009707285 -0.15094747 0.16704282 0.17334267 -0.039430372 0.10439277 -0.15520144 0.017163351 -0.04755479 -0.07190576 0.003626937 0.1414522 0.20312865 0.16567537 0.030635415 0.18099067 -0.09443174 -0.09073636 0.043747965 -0.0588311 -0.027716184 -0.11840409 0.1339802 -0.11317723 0.09981622 -0.03221836 -0.06483639 0.17805535 0.118975244 -0.014652312 0.132808 0.10901944 0.033800863 0.04281573 0.0613566 0.15264292 -0.15697692 0.12202774 -0.15304689 -0.11973757 -0.05486064 0.059856184 -0.060549777 0.06751222 -0.17025524 0.054037124 -0.04179526 0.13734305 -0.099682175 0.054574925 0.07124956 -0.05171478 0.05728925 -0.17074765 0.029955799 -0.056119476 -0.027571067 0.051486917 -0.03169899 0.13041507 -0.118189715 -0.16575557 -0.06795922 -0.020476608 0.039426602 -0.17940912 0.026846107 -0.17860536 -0.11720783 0.16799745 -0.07670535 -0.18688154 0.15947694 0.15778814 0.17367421 -0.16432473 -0.10305105 -0.19839308 -0.044891078 -0.01684749 0.06500714 0.04223972 0.107241906 0.19622266 0.061287563 0.22382414 0.08582612 -0.09448414 0.032401897 -0.059858955 -0.16029198 -0.0001877017 0.052753504 0.16157524 -0.044179056 -0.12691514 0.0851575 0.0345483 0.11225966 0.1888818 0.07124941 -0.044437826 -0.0356766 0.12059149 -0.06558189 -0.12908825 -0.042166423 0.12227508 0.15996854 -0.13164937 -0.014235647 -0.09167815 0.0796125 0.17162934 0.18932837 -0.058400754 0.13270141 0.15358192 -0.01417178 0.19404633 -0.08189822 0.08431028 0.018645609 0.2120007 0.0024713313 0.20304444 0.14394154 0.116047494 0.0180933 -0.045762572 0.15943658 0.13149934 -0.016755365 -0.03526447 0.06882766 0.11734118 0.14408062 0.17881025 0.08133951 -0.06334919 0.030235909 0.18799251 0.16788463 0.017539581 0.1168949 0.0331167 0.029020535 0.06412963 -0.052443787 0.046777613 0.050205987 0.14458826 0.20939763 -0.006227788 0.09143715 0.015972866 -0.025031354 0.10894238 -0.14947432 0.14150815 -0.09471023 -0.12865327 -0.047713935 0.1691309 0.09931897 0.19400941 0.06575587 0.030779138 -0.07152611 0.15816602 0.20573798 0.050222997 -0.17344408 -0.18483517 -0.16418299 -0.17008948 0.009225987 0.031165933 0.017392725 0.023693157 -0.20609926 -0.1468447 -0.10165328 -0.008417797 -0.132289 0.047268137 0.1648211 0.18399586 0.097197205 -0.103297964 -0.069101624 0.104185484 0.08877812 0.14939477 0.28930035 0.1583358 0.045927603 0.04275236 0.2225063 0.005304984 -0.09666505 -0.10642552 0.0005371583 0.32337093 0.179333 0.02283628 0.22916241 -0.026700968 0.14016159 0.054962784 0.09122563 0.039956424 0.23287311 -0.027998092 0.17160915 0.17834112 0.17829144 -0.03858577 -0.16338117 0.13790359 -0.031570546 0.070866846 0.2088252 0.10906079 -0.021652594 -0.11741486 0.21441036 0.16461027 0.18951437 0.029792896 0.22582613 -0.058204923 -0.02853638 0.1639584 0.20136482 0.07944483 0.0863066 -0.035294957 -0.081767656 0.085713066 -0.04741163 0.008426031 0.120854296 -0.027115813 -0.020187076 -0.029790865 0.08122941 0.17667285 0.15303649 0.04940531 0.33266023 0.15691079 0.12321529 0.13839115 0.13357551 -0.17523424 -0.14811355 -0.20140815 -0.08747783 -0.06111657 -0.14958431 -0.10554914 -0.11913562 -0.13555306 -0.15518178 0.06171027 0.14169723 -0.01454346 0.17176749 0.21607797 0.15165867 -0.15322468 -0.10572835 -0.20195037 0.14069897 0.14119451 0.10702239 0.1230956 -0.1619292 -0.20828839 0.04027602 0.034831356 -0.1801777 0.10633649 0.05693786 -0.10724596 0.100583784 -0.09365743 0.019873984 -0.05817874 0.18589528 0.21104795 -0.06047698 0.044059876 0.0029646205 -0.14675662 -0.16520624 -0.06938576 -0.06155405 0.049440414 0.16815539 -0.059162773 -0.069318354 -0.077531874 -0.14470014 -0.0094330255 -0.074729905 0.1259419 -0.05030395 0.0013339466 -0.11056971 0.11339102 0.11475157 -0.1887186 0.03812759 0.10917475 -0.082712024 0.07239659 -0.020824196 0.086953074 -0.12390274 -0.011649324 0.05690077 -0.0480631 0.17883116 -0.023221616 -0.044278152 -0.066130444 -0.1835205 -0.074239895 -0.21490955 0.007875856 0.17635278 -0.05648902 0.014756599 -0.12549198 0.106308445 0.03387345 0.18757537 -0.04337788 -0.04410284 0.039364573 0.08262819 0.05515457 0.10488036 -0.1302096 0.10710015 -0.16589093 0.069232374 0.0011328063 0.108205095 0.04536678 0.14785494 0.10618326 0.0978375 -0.108440585 -0.076946415 0.001742812 -0.18016036 -0.1465216 -0.12060226 -0.06580632 -0.14455375 0.16573736 -0.02082893 0.08334067 -0.1199389 -0.04486585 -0.16321956 -0.050425235 -0.017427402 -0.040977307 -0.09386967 -0.080170006 -0.06354741 0.05972326 -0.018812617 -0.080873184 -0.02818462 -0.19366549 -0.072853215 0.1749009 -0.083599314 -0.04346976 -0.02722973 -0.071824126 -0.071032 -0.01963822 0.048044633 0.07885168 0.119270705 -0.1794672 0.031726517 0.03428035 -0.06231149 0.0825343 -0.033805564 -0.16967922 0.1431337 -0.16949269 -0.1274279 0.10349114 0.09548092 0.20087515 -0.0022518265 0.075662136 -0.05547307 -0.21747488 -0.00775674 -0.12228478 -0.041059684 0.122560225 0.012236834 -0.040527143 0.098907515 -0.14535381 -0.16049206 0.17758894 0.0030800153 -0.106745414 -0.006254891 -0.08276216 0.11926235 -0.010122947 0.10733 0.010673287 0.12311843 -0.2121635 -0.09097328 0.09591124 0.007531559 -0.030425597 0.09745521 0.13062578 0.14683199 -0.09797651 0.16755679 0.16648714 -0.020188391 0.041277878 0.20144933 0.03793612 0.14941049 -0.17263447 -0.0493564 0.08980883 0.073341824 -0.15024814 0.04257364 -0.14189552 -0.12329528 0.039865088 0.05313873 0.03731115 -0.062323727 0.11506328 0.20977113 -0.11478244 -0.15829149 0.065868296 -0.1314987 0.167929 -0.16040778 -0.16133715 0.0901894 0.17145911 0.20643239 -0.012099206 0.20210303 0.11839837 0.110203646 0.18033934 0.092631176 -0.078546196 -0.039541677 0.08032214 0.10925253 0.14274153 0.1460866 0.108414516 -0.13884892 0.17626822 -0.06758363 0.13719925 -0.03303496 0.044617545 0.11328063 -0.12783362 0.19830571 0.17320807 0.13133055 -0.073604666 -0.16183385 -0.18370217 -0.17545576 0.038001396 0.057682764 -0.07946544 0.07290846 0.18133485 -0.1473902 0.11405914 -0.13010837 0.014838047 0.20837104 0.066595525 0.08881692 -0.11087504 -0.12903196 0.15738696 -0.15122621 0.08795453 -0.0062240916 0.21566506 0.10000465 0.16482563 0.025347702 0.19525631 0.04108736 0.085395746 -0.13539512 0.008976547 0.17834868 0.10835825 -0.023139657 0.23091508 0.12558651 -0.11356234 0.115518846 -0.09739379 0.16381906 0.17287233 0.15444271 0.21352394 -0.031787604 0.013929894 0.099983774 0.15826142 0.20637026 -0.07076221 0.16060996 -0.099479504 -0.053372007 0.11063281 0.13606681 -0.071241036 -0.13247558 0.24485506 0.010999292 0.19335344 0.06308509 0.08887139 -0.014810144 0.025047505 -0.10573423 0.16903263 -0.034269482 -0.07825983 0.10131509 0.07408068 -0.021409292 0.14168419 -0.11747868 -0.12504134 0.10681392 -0.16588232 -0.1455683 0.05534194 0.2160725 -0.018142417 0.23622319 0.23582341 0.0075406274 -0.1001362 0.1792515 -0.2014792 0.14230175 0.13021262 0.1524285 -0.061803795 0.092668965 -0.17536142 0.059961215 0.11186175 0.014079437 -0.086198054 -0.080790624 -0.048053507 0.21680987 0.16228274 0.11560786 0.13294281 0.091099486 0.15246843 0.029369162 0.04458575 0.026522117 -0.035299003 -0.16925478 -0.16689524 -0.00959615 0.043172378 0.08570232 0.17064887 -0.0072895754 0.0011889404 0.18466623 0.1903787 0.17600183 -0.05356394 0.14369573 -0.058732294 0.0041616545 0.11267473 -0.1550156 0.061332095 -0.17471848 0.188704 -0.08721852 0.061457243 -0.10847568 0.18741897 0.17992187 0.009624445 0.14477469 -0.1703311 0.14305969 -0.11974925 -0.07617879 -0.103373066 0.16646639 -0.14795539 -0.062591195 0.11274892 0.16059525 0.11610638 0.13367759 0.089026235 -0.03343157 0.0821113 0.048546992 0.095906146 -0.14380112 -0.13448483 0.1405864 0.11863806 0.14226525 -0.0027522135 0.08910637 0.14377235 -0.06729663 -0.028496098 0.16857217 0.06596815 0.11094973 0.09116052 -0.09750545 -0.17300798 -0.07164939 -0.08873534 -0.14703238 0.057132587 -0.061792985 -0.05832036 0.041248474 -0.111311056 0.07067546 0.13853079 -0.11157779 0.04866815 0.027978305 -0.14074506 0.08498198 -0.10121317 0.1374581 -0.06738909 0.136462 0.023259236 -0.13889138 0.03433422 -0.028383812 0.056317605 0.031809803 -0.1892349 0.06872052 0.075292975 -0.19564599 -0.08248211 0.05032597 -0.12263507 -0.12018116 0.084641725 -0.16716507 -0.21289206 0.0787031 -0.1970468 -0.19743805 0.007983378 -0.09063669 0.16320801 0.03613321 0.16951407 0.081596345 -0.09612599 -0.09649505 -0.07327166 -0.053101126 0.09260996 0.12546107 -0.0816075 -0.1568108 -0.095642015 -0.05141684 0.0948906 0.025314596 0.0027285214 0.14015113 -0.10360824 0.051167782 -0.00826825 -0.03574705 -0.021753136 0.06605412 -0.023508182 -0.16189155 -0.02565134 0.076594606 0.03397844 -0.23236986 -0.21043298 -0.13603455 -0.035297416 0.03495199 0.021235796 0.15602249 0.13996878 -0.14159966 0.03933286 -0.111910805 -0.06826342 0.1019757 0.15415111 0.064146094 0.139458 0.034841944 -0.057026032 -0.1342592 -0.089684956 0.10584465 0.1251111 0.119782224 0.16561352 -0.13219556 -0.1080269 0.08625357 0.061998498 0.039422687 0.017277222 -0.07758149 0.0003237248 -0.056921728 -0.15100348 -0.06719295 -0.06752024 -0.14237905 -0.16875768 0.02858571 0.07728959 0.030541642 0.0016650184 0.06601609 0.032418452 0.06115253 -0.1299446 -0.060078118 0.039969187 -0.19116351 -0.21813583 -0.08756925 0.030490018 0.07482602 -0.007930847 0.0214099 -0.16335975 -0.054541703 0.11069679 0.11536184 0.051455107 0.036367096 -0.20056245 -0.19889067 0.04512814 -0.1322341 -0.010799516 -0.10570623 -0.013670275 -0.070170246 0.008895573 0.03266794 -0.0010773101 0.09342092 0.045999467 0.12711841 -0.06992803 -0.14492303 0.070919685 0.10565267 -0.0463186 0.09676836 0.04076085 -0.16282374 -0.19121397 -0.09478086 -0.037130434 0.09115346 0.15947603 0.0771443 -0.090880126 -0.01942678 0.12641513 0.12540472 0.08622121 -0.034896646 0.08570609 0.15614416 -0.19366662 0.093031645 0.093118 0.24323788 -0.083287045 0.04766106 0.19964252 -0.07998365 -0.1350555 -0.2252187 -0.16585228 -0.1841923 -0.09011772 -0.007385862 0.13140225 -0.0033664217 -0.13459323 0.02042795 -0.21663006 -0.06579874 -0.047510356 -0.19123454 -0.05453289 0.19893879 -0.08863745 -0.038160063 -0.06684363 -0.16424529 -0.14679565 -0.19922225 -0.013500684 0.08726107 0.098424524 -0.14336856 -0.108322546 0.059086494 -0.14770846 0.028187564 -0.20227487 0.04447179 0.08263019 -0.15560071 -0.0069019063 -0.07401768 -0.14343108 0.06587984 -0.21402806 0.09673577 0.0046663643 0.121734746 0.106348336 -0.06941664 0.15462454 -0.025071932 -0.07243264 -0.16014326 -0.18054104 0.050875578 -0.087449156 0.14482372 0.1907231 -0.05160686 -0.15003993 0.03354056 -0.23756671 -0.016588252 -0.26491416 0.12290199 0.20177352 0.05020864 0.11083924 0.06661597 -0.087460615 0.048534747 0.18994473 0.09279822 -0.03148327 0.0058786618 -0.12719882 -0.074518874 -0.17899434 0.018546246 0.17710726 0.14236625 -0.03875348 0.23618422 0.004680138 -0.078394696 0.015360338 -0.18526264 -0.07532979 -0.028905816 0.040517073 -0.05049449 -0.13872732 -0.086451404 -0.057429865 0.15908128 -0.13544671 0.051886097 -0.15697138 -0.090597555 0.09483063 0.1503349 0.15918875 0.18872868 -0.15249407 -0.1316246 -0.1861103 -0.10265016 0.09281999 -0.06914298 -0.15065232 0.12562418 -0.079809904 -0.108259685 -0.104531944 0.116299585 -0.03595046 -0.17822158 -0.007424971 -0.020927154 0.16451915 -0.20213743 0.06239745 -0.19230717 0.033265978 0.111839175 0.16419122 0.16923219 0.08813863 -0.017971907 0.028875796 -0.019860305 0.12181589 -0.0689191 0.120064005 -0.099469945 0.11905237 0.20055786 0.117212534 0.25394905 -0.008602924 -0.1295223 -0.07439823 -0.018811444 0.020287057 -0.06589532 0.121522665 0.072548784 -0.072838806 -0.050910886 -0.16146763 0.104668476 0.0932396 0.10941272 0.10284469 -0.0054383855 0.015524639 -0.035263915 0.008428245 0.062026516 0.039466105 0.028746605 0.06870822 -0.019260643 -0.058876235 -0.05129902 0.045989722 -0.010842726 -0.016699106 0.084555455 0.10006797 0.0705933 -0.39101377 0.4294613 -0.17166562 -0.45064828 -0.3267986 0.47958383 -0.23229243 -0.29934514 -0.12439835 -0.61183906 -0.51310235 0.27858213 0.27084208 -0.4830276 -0.63011277 0.4828695 -0.11954128 0.058641374 0.58385164 0.42254668 0.40790328 0.18833257 -0.39588028 0.12228129 -0.31804144 -0.024308644 -0.4904785 -0.42203578 0.34426388 -0.37133467 -0.14386806 0.2445873 -0.16702141 0.4032881 -0.29712412 0.5415872 -0.04653458 0.41740742 0.37 -0.3518745 0.12118958 0.57984793 -0.05983486 -0.5183177 0.007261111 -0.03891287 -0.26178786 0.026726693 0.036872204 -0.057601746 